<?xml version="1.0"?>
<MethodSetup Method="BDT::BDTG">
  <GeneralInfo>
    <Info name="TMVA Release" value="4.2.1 [262657]"/>
    <Info name="ROOT Release" value="6.10/09 [395785]"/>
    <Info name="Creator" value="riegerjo"/>
    <Info name="Date" value="Wed Feb 27 17:31:04 2019"/>
    <Info name="Host" value="Linux cmsbuild76.cern.ch 2.6.32-696.30.1.el6.x86_64 #1 SMP Tue May 22 06:09:36 CEST 2018 x86_64 x86_64 x86_64 GNU/Linux"/>
    <Info name="Dir" value="/afs/desy.de/user/r/riegerjo/H2Mu/CMSSW_9_4_9/src/CAST/h2muAnalysis/TMVA/PhotonMVA"/>
    <Info name="Training events" value="2265021"/>
    <Info name="TrainingTime" value="1.48688706e+03"/>
    <Info name="AnalysisType" value="Classification"/>
  </GeneralInfo>
  <Options>
    <Option name="V" modified="Yes">False</Option>
    <Option name="VerbosityLevel" modified="No">Default</Option>
    <Option name="VarTransform" modified="No">None</Option>
    <Option name="H" modified="Yes">False</Option>
    <Option name="CreateMVAPdfs" modified="No">False</Option>
    <Option name="IgnoreNegWeightsInTraining" modified="No">False</Option>
    <Option name="NTrees" modified="Yes">800</Option>
    <Option name="MaxDepth" modified="Yes">3</Option>
    <Option name="MinNodeSize" modified="Yes">5%</Option>
    <Option name="nCuts" modified="Yes">100</Option>
    <Option name="BoostType" modified="Yes">Grad</Option>
    <Option name="AdaBoostR2Loss" modified="No">quadratic</Option>
    <Option name="UseBaggedBoost" modified="No">False</Option>
    <Option name="Shrinkage" modified="Yes">2.000000e-01</Option>
    <Option name="AdaBoostBeta" modified="No">5.000000e-01</Option>
    <Option name="UseRandomisedTrees" modified="No">False</Option>
    <Option name="UseNvars" modified="No">2</Option>
    <Option name="UsePoissonNvars" modified="No">True</Option>
    <Option name="BaggedSampleFraction" modified="No">6.000000e-01</Option>
    <Option name="UseYesNoLeaf" modified="No">True</Option>
    <Option name="NegWeightTreatment" modified="Yes">pray</Option>
    <Option name="Css" modified="No">1.000000e+00</Option>
    <Option name="Cts_sb" modified="No">1.000000e+00</Option>
    <Option name="Ctb_ss" modified="No">1.000000e+00</Option>
    <Option name="Cbb" modified="No">1.000000e+00</Option>
    <Option name="NodePurityLimit" modified="No">5.000000e-01</Option>
    <Option name="SeparationType" modified="No">giniindex</Option>
    <Option name="RegressionLossFunctionBDTG" modified="No">huber</Option>
    <Option name="HuberQuantile" modified="No">7.000000e-01</Option>
    <Option name="DoBoostMonitor" modified="No">False</Option>
    <Option name="UseFisherCuts" modified="No">False</Option>
    <Option name="MinLinCorrForFisher" modified="No">8.000000e-01</Option>
    <Option name="UseExclusiveVars" modified="No">False</Option>
    <Option name="DoPreselection" modified="No">False</Option>
    <Option name="SigToBkgFraction" modified="No">1.000000e+00</Option>
    <Option name="PruneMethod" modified="No">nopruning</Option>
    <Option name="PruneStrength" modified="No">0.000000e+00</Option>
    <Option name="PruningValFraction" modified="No">5.000000e-01</Option>
    <Option name="SkipNormalization" modified="No">False</Option>
    <Option name="nEventsMin" modified="No">0</Option>
    <Option name="UseBaggedGrad" modified="No">False</Option>
    <Option name="GradBaggingFraction" modified="No">6.000000e-01</Option>
    <Option name="UseNTrainEvents" modified="No">0</Option>
    <Option name="NNodesMax" modified="No">0</Option>
  </Options>
  <Variables NVar="4">
    <Variable VarIndex="0" Expression="dREtg" Label="dREtg" Title="dREtg" Unit="" Internal="dREtg" Type="F" Min="1.46023140e-08" Max="1.24979109e-01"/>
    <Variable VarIndex="1" Expression="PhoIso" Label="PhoIso" Title="PhoIso" Unit="" Internal="PhoIso" Type="F" Min="0.00000000e+00" Max="7.77100769e+02"/>
    <Variable VarIndex="2" Expression="Mgmu" Label="Mgmu" Title="Mgmu" Unit="" Internal="Mgmu" Type="F" Min="1.07262999e-01" Max="1.05085617e+02"/>
    <Variable VarIndex="3" Expression="MuPtSplit" Label="MuPtSplit" Title="MuPtSplit" Unit="" Internal="MuPtSplit" Type="F" Min="8.28427076e-01" Max="8.57426208e+02"/>
  </Variables>
  <Spectators NSpec="2">
    <Spectator SpecIndex="0" Expression="nFSRPhoton" Label="nFSRPhoton" Title="I" Unit="" Internal="nFSRPhoton" Type="F" Min="1.00000000e+00" Max="1.50000000e+01"/>
    <Spectator SpecIndex="1" Expression="evWeight" Label="evWeight" Title="F" Unit="" Internal="evWeight" Type="F" Min="-3.41476202e+00" Max="3.41476202e+00"/>
  </Spectators>
  <Classes NClass="2">
    <Class Name="Signal" Index="0"/>
    <Class Name="Background" Index="1"/>
  </Classes>
  <Transformations NTransformations="0"/>
  <MVAPdfs/>
  <Weights NTrees="800" AnalysisType="1">
    <BinaryTree type="DecisionTree" boostWeight="1.0000000000000000e+00" itree="0">
      <Node pos="s" depth="0" NCoef="0" IVar="0" Cut="1.1136765591800213e-02" cType="1" res="7.3733770825090694e-13" rms="5.0000000000000000e-01" purity="5.0000000000000000e-01" nType="0">
        <Node pos="l" depth="1" NCoef="0" IVar="1" Cut="2.5713071823120117e+00" cType="1" res="3.4528219699859619e-01" rms="3.6163544654846191e-01" purity="8.4528219699859619e-01" nType="0">
          <Node pos="l" depth="2" NCoef="0" IVar="1" Cut="1.0437872409820557e+00" cType="1" res="3.9831420779228210e-01" rms="3.0223467946052551e-01" purity="8.9831417798995972e-01" nType="0">
            <Node pos="l" depth="3" NCoef="0" IVar="-1" Cut="0.0000000000000000e+00" cType="1" res="1.3557987287640572e-02" rms="2.3333509266376495e-01" purity="9.4221574068069458e-01" nType="-99"/>
            <Node pos="r" depth="3" NCoef="0" IVar="-1" Cut="0.0000000000000000e+00" cType="1" res="8.9194625616073608e-03" rms="4.4348618388175964e-01" purity="7.3091125488281250e-01" nType="-99"/>
          </Node>
          <Node pos="r" depth="2" NCoef="0" IVar="-1" Cut="0.0000000000000000e+00" cType="1" res="-8.1053264439105988e-03" rms="4.8344659805297852e-01" purity="3.7240934371948242e-01" nType="-99"/>
        </Node>
        <Node pos="r" depth="1" NCoef="0" IVar="0" Cut="2.5789741426706314e-02" cType="1" res="-3.6570611596107483e-01" rms="3.4096777439117432e-01" purity="1.3429386913776398e-01" nType="0">
          <Node pos="l" depth="2" NCoef="0" IVar="0" Cut="1.8100537359714508e-02" cType="1" res="-1.7290878295898438e-01" rms="4.6915087103843689e-01" purity="3.2709118723869324e-01" nType="0">
            <Node pos="l" depth="3" NCoef="0" IVar="-1" Cut="0.0000000000000000e+00" cType="1" res="-6.4235115423798561e-03" rms="4.8947778344154358e-01" purity="3.9796331524848938e-01" nType="-99"/>
            <Node pos="r" depth="3" NCoef="0" IVar="-1" Cut="0.0000000000000000e+00" cType="1" res="-2.2145273163914680e-02" rms="4.3144798278808594e-01" purity="2.4730922281742096e-01" nType="-99"/>
          </Node>
          <Node pos="r" depth="2" NCoef="0" IVar="0" Cut="4.5431215316057205e-02" cType="1" res="-4.2812716960906982e-01" rms="2.5827723741531372e-01" purity="7.1872837841510773e-02" nType="0">
            <Node pos="l" depth="3" NCoef="0" IVar="-1" Cut="0.0000000000000000e+00" cType="1" res="-4.5518293976783752e-02" rms="3.3846020698547363e-01" purity="1.3197188079357147e-01" nType="-99"/>
            <Node pos="r" depth="3" NCoef="0" IVar="-1" Cut="0.0000000000000000e+00" cType="1" res="-8.7124161422252655e-02" rms="1.9969817996025085e-01" purity="4.1610822081565857e-02" nType="-99"/>
          </Node>
        </Node>
      </Node>
    </BinaryTree>
    <BinaryTree type="DecisionTree" boostWeight="1.0000000000000000e+00" itree="1">
      <Node pos="s" depth="0" NCoef="0" IVar="0" Cut="1.1136765591800213e-02" cType="1" res="1.1515158228576183e-02" rms="4.8563361167907715e-01" purity="5.0000000000000000e-01" nType="0">
        <Node pos="l" depth="1" NCoef="0" IVar="1" Cut="2.5713071823120117e+00" cType="1" res="3.4002906084060669e-01" rms="3.6008146405220032e-01" purity="8.4528219699859619e-01" nType="0">
          <Node pos="l" depth="2" NCoef="0" IVar="1" Cut="1.0437872409820557e+00" cType="1" res="3.9201742410659790e-01" rms="3.0196917057037354e-01" purity="8.9831417798995972e-01" nType="0">
            <Node pos="l" depth="3" NCoef="0" IVar="-1" Cut="0.0000000000000000e+00" cType="1" res="1.3352615758776665e-02" rms="2.3333509266376495e-01" purity="9.4221574068069458e-01" nType="-99"/>
            <Node pos="r" depth="3" NCoef="0" IVar="-1" Cut="0.0000000000000000e+00" cType="1" res="8.7478952482342720e-03" rms="4.4348618388175964e-01" purity="7.3091125488281250e-01" nType="-99"/>
          </Node>
          <Node pos="r" depth="2" NCoef="0" IVar="-1" Cut="0.0000000000000000e+00" cType="1" res="-7.8483978286385536e-03" rms="4.8344659805297852e-01" purity="3.7240934371948242e-01" nType="-99"/>
        </Node>
        <Node pos="r" depth="1" NCoef="0" IVar="0" Cut="2.5789741426706314e-02" cType="1" res="-3.3643078804016113e-01" rms="3.3605152368545532e-01" purity="1.3429386913776398e-01" nType="0">
          <Node pos="l" depth="2" NCoef="0" IVar="0" Cut="1.7084987834095955e-02" cType="1" res="-1.6599991917610168e-01" rms="4.6853816509246826e-01" purity="3.2709118723869324e-01" nType="0">
            <Node pos="l" depth="3" NCoef="0" IVar="-1" Cut="0.0000000000000000e+00" cType="1" res="-5.4492834024131298e-03" rms="4.9154007434844971e-01" purity="4.0841200947761536e-01" nType="-99"/>
            <Node pos="r" depth="3" NCoef="0" IVar="-1" Cut="0.0000000000000000e+00" cType="1" res="-1.9850008189678192e-02" rms="4.3724974989891052e-01" purity="2.5776806473731995e-01" nType="-99"/>
          </Node>
          <Node pos="r" depth="2" NCoef="0" IVar="0" Cut="4.0520850569009781e-02" cType="1" res="-3.9161035418510437e-01" rms="2.5684440135955811e-01" purity="7.1872837841510773e-02" nType="0">
            <Node pos="l" depth="3" NCoef="0" IVar="-1" Cut="0.0000000000000000e+00" cType="1" res="-3.9503641426563263e-02" rms="3.5112363100051880e-01" purity="1.4403341710567474e-01" nType="-99"/>
            <Node pos="r" depth="3" NCoef="0" IVar="-1" Cut="0.0000000000000000e+00" cType="1" res="-7.6241292059421539e-02" rms="2.1148195862770081e-01" purity="4.7106087207794189e-02" nType="-99"/>
          </Node>
        </Node>
      </Node>
    </BinaryTree>
    <BinaryTree type="DecisionTree" boostWeight="1.0000000000000000e+00" itree="2">
      <Node pos="s" depth="0" NCoef="0" IVar="0" Cut="1.1136765591800213e-02" cType="1" res="2.1736014634370804e-02" rms="4.7284755110740662e-01" purity="5.0000000000000000e-01" nType="0">
        <Node pos="l" depth="1" NCoef="0" IVar="1" Cut="2.5713071823120117e+00" cType="1" res="3.3485391736030579e-01" rms="3.5858106613159180e-01" purity="8.4528219699859619e-01" nType="0">
          <Node pos="l" depth="2" NCoef="0" IVar="1" Cut="1.0692454576492310e+00" cType="1" res="3.8582187891006470e-01" rms="3.0170843005180359e-01" purity="8.9831417798995972e-01" nType="0">
            <Node pos="l" depth="3" NCoef="0" IVar="-1" Cut="0.0000000000000000e+00" cType="1" res="1.3144108466804028e-02" rms="2.3513363301753998e-01" purity="9.4125223159790039e-01" nType="-99"/>
            <Node pos="r" depth="3" NCoef="0" IVar="-1" Cut="0.0000000000000000e+00" cType="1" res="8.4620406851172447e-03" rms="4.4536200165748596e-01" purity="7.2727227210998535e-01" nType="-99"/>
          </Node>
          <Node pos="r" depth="2" NCoef="0" IVar="-1" Cut="0.0000000000000000e+00" cType="1" res="-7.6005659066140652e-03" rms="4.8344659805297852e-01" purity="3.7240934371948242e-01" nType="-99"/>
        </Node>
        <Node pos="r" depth="1" NCoef="0" IVar="0" Cut="2.2408286109566689e-02" cType="1" res="-3.0990323424339294e-01" rms="3.3223804831504822e-01" purity="1.3429386913776398e-01" nType="0">
          <Node pos="l" depth="2" NCoef="0" IVar="-1" Cut="0.0000000000000000e+00" cType="1" res="-9.1695478186011314e-03" rms="4.7743600606918335e-01" purity="3.5439559817314148e-01" nType="-99"/>
          <Node pos="r" depth="2" NCoef="0" IVar="0" Cut="3.3579401671886444e-02" cType="1" res="-3.5255789756774902e-01" rms="2.6935854554176331e-01" purity="8.0927155911922455e-02" nType="0">
            <Node pos="l" depth="3" NCoef="0" IVar="-1" Cut="0.0000000000000000e+00" cType="1" res="-2.9317082837224007e-02" rms="3.8741567730903625e-01" purity="1.8451245129108429e-01" nType="-99"/>
            <Node pos="r" depth="3" NCoef="0" IVar="-1" Cut="0.0000000000000000e+00" cType="1" res="-6.6033780574798584e-02" rms="2.2927133738994598e-01" purity="5.6297387927770615e-02" nType="-99"/>
          </Node>
        </Node>
      </Node>
    </BinaryTree>
    <BinaryTree type="DecisionTree" boostWeight="1.0000000000000000e+00" itree="3">
      <Node pos="s" depth="0" NCoef="0" IVar="0" Cut="8.6619323119521141e-03" cType="1" res="3.0717667192220688e-02" rms="4.6151608228683472e-01" purity="5.0000000000000000e-01" nType="0">
        <Node pos="l" depth="1" NCoef="0" IVar="0" Cut="2.2298109252005816e-03" cType="1" res="3.4805658459663391e-01" rms="3.3862853050231934e-01" purity="8.6414515972137451e-01" nType="0">
          <Node pos="l" depth="2" NCoef="0" IVar="0" Cut="5.5194384185597301e-04" cType="1" res="4.0729531645774841e-01" rms="2.6054406166076660e-01" purity="9.2553544044494629e-01" nType="0">
            <Node pos="l" depth="3" NCoef="0" IVar="-1" Cut="0.0000000000000000e+00" cType="1" res="1.2940321117639542e-02" rms="2.0897001028060913e-01" purity="9.5385217666625977e-01" nType="-99"/>
            <Node pos="r" depth="3" NCoef="0" IVar="-1" Cut="0.0000000000000000e+00" cType="1" res="1.2179449200630188e-02" rms="3.2257863879203796e-01" purity="8.7953209877014160e-01" nType="-99"/>
          </Node>
          <Node pos="r" depth="2" NCoef="0" IVar="-1" Cut="0.0000000000000000e+00" cType="1" res="8.0816289409995079e-03" rms="4.4514000415802002e-01" purity="7.1720528602600098e-01" nType="-99"/>
        </Node>
        <Node pos="r" depth="1" NCoef="0" IVar="0" Cut="1.7875175923109055e-02" cType="1" res="-2.6824691891670227e-01" rms="3.4839445352554321e-01" purity="1.5693926811218262e-01" nType="0">
          <Node pos="l" depth="2" NCoef="0" IVar="-1" Cut="0.0000000000000000e+00" cType="1" res="-2.9760340694338083e-03" rms="4.9387615919113159e-01" purity="4.4295129179954529e-01" nType="-99"/>
          <Node pos="r" depth="2" NCoef="0" IVar="0" Cut="3.2721273601055145e-02" cType="1" res="-3.1437695026397705e-01" rms="2.8840541839599609e-01" purity="9.6084684133529663e-02" nType="0">
            <Node pos="l" depth="3" NCoef="0" IVar="-1" Cut="0.0000000000000000e+00" cType="1" res="-2.3361666128039360e-02" rms="4.0939104557037354e-01" purity="2.1477484703063965e-01" nType="-99"/>
            <Node pos="r" depth="3" NCoef="0" IVar="-1" Cut="0.0000000000000000e+00" cType="1" res="-6.1009947210550308e-02" rms="2.3226672410964966e-01" purity="5.7974066585302353e-02" nType="-99"/>
          </Node>
        </Node>
      </Node>
    </BinaryTree>
    <BinaryTree type="DecisionTree" boostWeight="1.0000000000000000e+00" itree="4">
      <Node pos="s" depth="0" NCoef="0" IVar="0" Cut="8.6619323119521141e-03" cType="1" res="3.8542561233043671e-02" rms="4.5158889889717102e-01" purity="5.0000000000000000e-01" nType="0">
        <Node pos="l" depth="1" NCoef="0" IVar="0" Cut="2.2298109252005816e-03" cType="1" res="3.4241491556167603e-01" rms="3.3833664655685425e-01" purity="8.6414515972137451e-01" nType="0">
          <Node pos="l" depth="2" NCoef="0" IVar="0" Cut="5.5194384185597301e-04" cType="1" res="4.0098267793655396e-01" rms="2.6052045822143555e-01" purity="9.2553544044494629e-01" nType="0">
            <Node pos="l" depth="3" NCoef="0" IVar="-1" Cut="0.0000000000000000e+00" cType="1" res="1.2763020582497120e-02" rms="2.0897047221660614e-01" purity="9.5385217666625977e-01" nType="-99"/>
            <Node pos="r" depth="3" NCoef="0" IVar="-1" Cut="0.0000000000000000e+00" cType="1" res="1.1987427249550819e-02" rms="3.2257986068725586e-01" purity="8.7953209877014160e-01" nType="-99"/>
          </Node>
          <Node pos="r" depth="2" NCoef="0" IVar="-1" Cut="0.0000000000000000e+00" cType="1" res="7.9275313764810562e-03" rms="4.4514104723930359e-01" purity="7.1720528602600098e-01" nType="-99"/>
        </Node>
        <Node pos="r" depth="1" NCoef="0" IVar="0" Cut="1.7875175923109055e-02" cType="1" res="-2.4773520231246948e-01" rms="3.4534999728202820e-01" purity="1.5693926811218262e-01" nType="0">
          <Node pos="l" depth="2" NCoef="0" IVar="-1" Cut="0.0000000000000000e+00" cType="1" res="-2.8901330661028624e-03" rms="4.9387609958648682e-01" purity="4.4295129179954529e-01" nType="-99"/>
          <Node pos="r" depth="2" NCoef="0" IVar="0" Cut="2.9539966955780983e-02" cType="1" res="-2.8981733322143555e-01" rms="2.8749179840087891e-01" purity="9.6084684133529663e-02" nType="0">
            <Node pos="l" depth="3" NCoef="0" IVar="-1" Cut="0.0000000000000000e+00" cType="1" res="-2.0533537492156029e-02" rms="4.1904988884925842e-01" purity="2.2878161072731018e-01" nType="-99"/>
            <Node pos="r" depth="3" NCoef="0" IVar="-1" Cut="0.0000000000000000e+00" cType="1" res="-5.5000420659780502e-02" rms="2.4241319298744202e-01" purity="6.3965767621994019e-02" nType="-99"/>
          </Node>
        </Node>
      </Node>
    </BinaryTree>
    <BinaryTree type="DecisionTree" boostWeight="1.0000000000000000e+00" itree="5">
      <Node pos="s" depth="0" NCoef="0" IVar="0" Cut="8.6619323119521141e-03" cType="1" res="4.5439802110195160e-02" rms="4.4271755218505859e-01" purity="5.0000000000000000e-01" nType="0">
        <Node pos="l" depth="1" NCoef="0" IVar="0" Cut="2.2298109252005816e-03" cType="1" res="3.3686628937721252e-01" rms="3.3805051445960999e-01" purity="8.6414515972137451e-01" nType="0">
          <Node pos="l" depth="2" NCoef="0" IVar="0" Cut="5.5194384185597301e-04" cType="1" res="3.9476901292800903e-01" rms="2.6049715280532837e-01" purity="9.2553544044494629e-01" nType="0">
            <Node pos="l" depth="3" NCoef="0" IVar="-1" Cut="0.0000000000000000e+00" cType="1" res="1.2592094019055367e-02" rms="2.0897117257118225e-01" purity="9.5385217666625977e-01" nType="-99"/>
            <Node pos="r" depth="3" NCoef="0" IVar="-1" Cut="0.0000000000000000e+00" cType="1" res="1.1801677756011486e-02" rms="3.2258185744285583e-01" purity="8.7953209877014160e-01" nType="-99"/>
          </Node>
          <Node pos="r" depth="2" NCoef="0" IVar="-1" Cut="0.0000000000000000e+00" cType="1" res="7.7772759832441807e-03" rms="4.4514268636703491e-01" purity="7.1720528602600098e-01" nType="-99"/>
        </Node>
        <Node pos="r" depth="1" NCoef="0" IVar="0" Cut="1.7875175923109055e-02" cType="1" res="-2.2911272943019867e-01" rms="3.4292384982109070e-01" purity="1.5693926811218262e-01" nType="0">
          <Node pos="l" depth="2" NCoef="0" IVar="-1" Cut="0.0000000000000000e+00" cType="1" res="-2.8067582752555609e-03" rms="4.9387606978416443e-01" purity="4.4295129179954529e-01" nType="-99"/>
          <Node pos="r" depth="2" NCoef="0" IVar="1" Cut="7.6940670013427734e+00" cType="1" res="-2.6753979921340942e-01" rms="2.8688621520996094e-01" purity="9.6084684133529663e-02" nType="0">
            <Node pos="l" depth="3" NCoef="0" IVar="-1" Cut="0.0000000000000000e+00" cType="1" res="-3.8217972964048386e-02" rms="3.0265757441520691e-01" purity="1.0869337618350983e-01" nType="-99"/>
            <Node pos="r" depth="3" NCoef="0" IVar="-1" Cut="0.0000000000000000e+00" cType="1" res="-7.3252409696578979e-02" rms="1.0083844512701035e-01" purity="8.9662577956914902e-03" nType="-99"/>
          </Node>
        </Node>
      </Node>
    </BinaryTree>
    <BinaryTree type="DecisionTree" boostWeight="1.0000000000000000e+00" itree="6">
      <Node pos="s" depth="0" NCoef="0" IVar="0" Cut="8.6619323119521141e-03" cType="1" res="5.1122646778821945e-02" rms="4.3501487374305725e-01" purity="5.0000000000000000e-01" nType="0">
        <Node pos="l" depth="1" NCoef="0" IVar="0" Cut="2.5728563778102398e-03" cType="1" res="3.3140912652015686e-01" rms="3.3777007460594177e-01" purity="8.6414515972137451e-01" nType="0">
          <Node pos="l" depth="2" NCoef="0" IVar="0" Cut="7.1324314922094345e-04" cType="1" res="3.8469010591506958e-01" rms="2.6720607280731201e-01" purity="9.2114150524139404e-01" nType="0">
            <Node pos="l" depth="3" NCoef="0" IVar="-1" Cut="0.0000000000000000e+00" cType="1" res="1.2434762902557850e-02" rms="2.1639958024024963e-01" purity="9.5026206970214844e-01" nType="-99"/>
            <Node pos="r" depth="3" NCoef="0" IVar="-1" Cut="0.0000000000000000e+00" cType="1" res="1.1280852369964123e-02" rms="3.3769133687019348e-01" purity="8.6567896604537964e-01" nType="-99"/>
          </Node>
          <Node pos="r" depth="2" NCoef="0" IVar="-1" Cut="0.0000000000000000e+00" cType="1" res="7.3258359916508198e-03" rms="4.5013195276260376e-01" purity="7.0644003152847290e-01" nType="-99"/>
        </Node>
        <Node pos="r" depth="1" NCoef="0" IVar="0" Cut="2.0178485661745071e-02" cType="1" res="-2.1293489634990692e-01" rms="3.4102472662925720e-01" purity="1.5693926811218262e-01" nType="0">
          <Node pos="l" depth="2" NCoef="0" IVar="0" Cut="1.3565005734562874e-02" cType="1" res="-6.3432469964027405e-02" rms="4.8851823806762695e-01" purity="4.1742712259292603e-01" nType="0">
            <Node pos="l" depth="3" NCoef="0" IVar="-1" Cut="0.0000000000000000e+00" cType="1" res="2.0592633518390357e-04" rms="4.9637940526008606e-01" purity="4.9815043807029724e-01" nType="-99"/>
            <Node pos="r" depth="3" NCoef="0" IVar="-1" Cut="0.0000000000000000e+00" cType="1" res="-9.2257009819149971e-03" rms="4.7105517983436584e-01" purity="3.3689790964126587e-01" nType="-99"/>
          </Node>
          <Node pos="r" depth="2" NCoef="0" IVar="0" Cut="5.0269763916730881e-02" cType="1" res="-2.5245240330696106e-01" rms="2.7656337618827820e-01" purity="8.8085323572158813e-02" nType="0">
            <Node pos="l" depth="3" NCoef="0" IVar="-1" Cut="0.0000000000000000e+00" cType="1" res="-2.8403853997588158e-02" rms="3.4825080633163452e-01" purity="1.4591196179389954e-01" nType="-99"/>
            <Node pos="r" depth="3" NCoef="0" IVar="-1" Cut="0.0000000000000000e+00" cType="1" res="-6.2877602875232697e-02" rms="1.8858692049980164e-01" purity="3.7045557051897049e-02" nType="-99"/>
          </Node>
        </Node>
      </Node>
    </BinaryTree>
    <BinaryTree type="DecisionTree" boostWeight="1.0000000000000000e+00" itree="7">
      <Node pos="s" depth="0" NCoef="0" IVar="0" Cut="8.6619323119521141e-03" cType="1" res="5.6982163339853287e-02" rms="4.2735058069229126e-01" purity="5.0000000000000000e-01" nType="0">
        <Node pos="l" depth="1" NCoef="0" IVar="0" Cut="2.5728563778102398e-03" cType="1" res="3.2604715228080750e-01" rms="3.3748206496238708e-01" purity="8.6414515972137451e-01" nType="0">
          <Node pos="l" depth="2" NCoef="0" IVar="0" Cut="7.1324314922094345e-04" cType="1" res="3.7871012091636658e-01" rms="2.6717051863670349e-01" purity="9.2114150524139404e-01" nType="0">
            <Node pos="l" depth="3" NCoef="0" IVar="-1" Cut="0.0000000000000000e+00" cType="1" res="1.2273718602955341e-02" rms="2.1640099585056305e-01" purity="9.5026206970214844e-01" nType="-99"/>
            <Node pos="r" depth="3" NCoef="0" IVar="-1" Cut="0.0000000000000000e+00" cType="1" res="1.1109082959592342e-02" rms="3.3769503235816956e-01" purity="8.6567896604537964e-01" nType="-99"/>
          </Node>
          <Node pos="r" depth="2" NCoef="0" IVar="-1" Cut="0.0000000000000000e+00" cType="1" res="7.1861236356198788e-03" rms="4.5013463497161865e-01" purity="7.0644003152847290e-01" nType="-99"/>
        </Node>
        <Node pos="r" depth="1" NCoef="0" IVar="0" Cut="1.5571865253150463e-02" cType="1" res="-1.9650362432003021e-01" rms="3.3900424838066101e-01" purity="1.5693926811218262e-01" nType="0">
          <Node pos="l" depth="2" NCoef="0" IVar="-1" Cut="0.0000000000000000e+00" cType="1" res="-1.1343657970428467e-03" rms="4.9585014581680298e-01" purity="4.7042348980903625e-01" nType="-99"/>
          <Node pos="r" depth="2" NCoef="0" IVar="0" Cut="2.5321094319224358e-02" cType="1" res="-2.2480686008930206e-01" rms="2.9678538441658020e-01" purity="1.0651931911706924e-01" nType="0">
            <Node pos="l" depth="3" NCoef="0" IVar="-1" Cut="0.0000000000000000e+00" cType="1" res="-1.3075921684503555e-02" rms="4.4449344277381897e-01" purity="2.7584227919578552e-01" nType="-99"/>
            <Node pos="r" depth="3" NCoef="0" IVar="-1" Cut="0.0000000000000000e+00" cType="1" res="-4.4209431856870651e-02" rms="2.5545045733451843e-01" purity="7.2891630232334137e-02" nType="-99"/>
          </Node>
        </Node>
      </Node>
    </BinaryTree>
    <BinaryTree type="DecisionTree" boostWeight="1.0000000000000000e+00" itree="8">
      <Node pos="s" depth="0" NCoef="0" IVar="0" Cut="8.6619323119521141e-03" cType="1" res="6.1791878193616867e-02" rms="4.2075949907302856e-01" purity="5.0000000000000000e-01" nType="0">
        <Node pos="l" depth="1" NCoef="0" IVar="0" Cut="2.2298109252005816e-03" cType="1" res="3.2077333331108093e-01" rms="3.3719992637634277e-01" purity="8.6414515972137451e-01" nType="0">
          <Node pos="l" depth="2" NCoef="0" IVar="0" Cut="5.5194384185597301e-04" cType="1" res="3.7675681710243225e-01" rms="2.6040971279144287e-01" purity="9.2553544044494629e-01" nType="0">
            <Node pos="l" depth="3" NCoef="0" IVar="-1" Cut="0.0000000000000000e+00" cType="1" res="1.2113966979086399e-02" rms="2.0897476375102997e-01" purity="9.5385217666625977e-01" nType="-99"/>
            <Node pos="r" depth="3" NCoef="0" IVar="-1" Cut="0.0000000000000000e+00" cType="1" res="1.1282945983111858e-02" rms="3.2257181406021118e-01" purity="8.7953209877014160e-01" nType="-99"/>
          </Node>
          <Node pos="r" depth="2" NCoef="0" IVar="-1" Cut="0.0000000000000000e+00" cType="1" res="7.3449756018817425e-03" rms="4.4506999850273132e-01" purity="7.1720528602600098e-01" nType="-99"/>
        </Node>
        <Node pos="r" depth="1" NCoef="0" IVar="0" Cut="1.5571865253150463e-02" cType="1" res="-1.8219423294067383e-01" rms="3.3762267231941223e-01" purity="1.5693926811218262e-01" nType="0">
          <Node pos="l" depth="2" NCoef="0" IVar="-1" Cut="0.0000000000000000e+00" cType="1" res="-1.1030888417735696e-03" rms="4.9585020542144775e-01" purity="4.7042348980903625e-01" nType="-99"/>
          <Node pos="r" depth="2" NCoef="0" IVar="1" Cut="7.6940670013427734e+00" cType="1" res="-2.0828711986541748e-01" rms="2.9641893506050110e-01" purity="1.0651931911706924e-01" nType="0">
            <Node pos="l" depth="3" NCoef="0" IVar="-1" Cut="0.0000000000000000e+00" cType="1" res="-2.9776178300380707e-02" rms="3.1258788704872131e-01" purity="1.2035674601793289e-01" nType="-99"/>
            <Node pos="r" depth="3" NCoef="0" IVar="-1" Cut="0.0000000000000000e+00" cType="1" res="-6.5989047288894653e-02" rms="1.0923665761947632e-01" purity="9.5870392397046089e-03" nType="-99"/>
          </Node>
        </Node>
      </Node>
    </BinaryTree>
    <BinaryTree type="DecisionTree" boostWeight="1.0000000000000000e+00" itree="9">
      <Node pos="s" depth="0" NCoef="0" IVar="0" Cut="7.4245152063667774e-03" cType="1" res="6.5648399293422699e-02" rms="4.1499114036560059e-01" purity="5.0000000000000000e-01" nType="0">
        <Node pos="l" depth="1" NCoef="0" IVar="0" Cut="2.1317999344319105e-03" cType="1" res="3.2479116320610046e-01" rms="3.2656261324882507e-01" purity="8.7403905391693115e-01" nType="0">
          <Node pos="l" depth="2" NCoef="0" IVar="0" Cut="4.6436159755103290e-04" cType="1" res="3.7215512990951538e-01" rms="2.5830662250518799e-01" purity="9.2684590816497803e-01" nType="0">
            <Node pos="l" depth="3" NCoef="0" IVar="-1" Cut="0.0000000000000000e+00" cType="1" res="1.1974619701504707e-02" rms="2.0409536361694336e-01" purity="9.5611768960952759e-01" nType="-99"/>
            <Node pos="r" depth="3" NCoef="0" IVar="-1" Cut="0.0000000000000000e+00" cType="1" res="1.1223823763430119e-02" rms="3.1617054343223572e-01" purity="8.8501727581024170e-01" nType="-99"/>
          </Node>
          <Node pos="r" depth="2" NCoef="0" IVar="-1" Cut="0.0000000000000000e+00" cType="1" res="7.7567724511027336e-03" rms="4.3530598282814026e-01" purity="7.3663622140884399e-01" nType="-99"/>
        </Node>
        <Node pos="r" depth="1" NCoef="0" IVar="0" Cut="1.4407983981072903e-02" cType="1" res="-1.6171064972877502e-01" rms="3.4516501426696777e-01" purity="1.7183659970760345e-01" nType="0">
          <Node pos="l" depth="2" NCoef="0" IVar="-1" Cut="0.0000000000000000e+00" cType="1" res="6.5153819741681218e-04" rms="4.9458649754524231e-01" purity="5.1284837722778320e-01" nType="-99"/>
          <Node pos="r" depth="2" NCoef="0" IVar="0" Cut="3.5208500921726227e-02" cType="1" res="-1.9216914474964142e-01" rms="3.0162113904953003e-01" purity="1.1224509775638580e-01" nType="0">
            <Node pos="l" depth="3" NCoef="0" IVar="-1" Cut="0.0000000000000000e+00" cType="1" res="-1.4427725225687027e-02" rms="4.1543835401535034e-01" purity="2.3260219395160675e-01" nType="-99"/>
            <Node pos="r" depth="3" NCoef="0" IVar="-1" Cut="0.0000000000000000e+00" cType="1" res="-4.7870870679616928e-02" rms="2.2419360280036926e-01" purity="5.4040398448705673e-02" nType="-99"/>
          </Node>
        </Node>
      </Node>
    </BinaryTree>
    <BinaryTree type="DecisionTree" boostWeight="1.0000000000000000e+00" itree="10">
      <Node pos="s" depth="0" NCoef="0" IVar="0" Cut="7.4245152063667774e-03" cType="1" res="6.9753184914588928e-02" rms="4.0923702716827393e-01" purity="5.0000000000000000e-01" nType="0">
        <Node pos="l" depth="1" NCoef="0" IVar="0" Cut="2.1317999344319105e-03" cType="1" res="3.1956422328948975e-01" rms="3.2635566592216492e-01" purity="8.7403905391693115e-01" nType="0">
          <Node pos="l" depth="2" NCoef="0" IVar="0" Cut="4.6436159755103290e-04" cType="1" res="3.6640086770057678e-01" rms="2.5828790664672852e-01" purity="9.2684590816497803e-01" nType="0">
            <Node pos="l" depth="3" NCoef="0" IVar="-1" Cut="0.0000000000000000e+00" cType="1" res="1.1831505224108696e-02" rms="2.0409698784351349e-01" purity="9.5611768960952759e-01" nType="-99"/>
            <Node pos="r" depth="3" NCoef="0" IVar="-1" Cut="0.0000000000000000e+00" cType="1" res="1.1064569465816021e-02" rms="3.1617593765258789e-01" purity="8.8501727581024170e-01" nType="-99"/>
          </Node>
          <Node pos="r" depth="2" NCoef="0" IVar="-1" Cut="0.0000000000000000e+00" cType="1" res="7.6177744194865227e-03" rms="4.3531063199043274e-01" purity="7.3663622140884399e-01" nType="-99"/>
        </Node>
        <Node pos="r" depth="1" NCoef="0" IVar="0" Cut="1.4407983981072903e-02" cType="1" res="-1.4941869676113129e-01" rms="3.4376800060272217e-01" purity="1.7183659970760345e-01" nType="0">
          <Node pos="l" depth="2" NCoef="0" IVar="-1" Cut="0.0000000000000000e+00" cType="1" res="6.3471368048340082e-04" rms="4.9458661675453186e-01" purity="5.1284837722778320e-01" nType="-99"/>
          <Node pos="r" depth="2" NCoef="0" IVar="1" Cut="7.6940670013427734e+00" cType="1" res="-1.7767235636711121e-01" rms="3.0118912458419800e-01" purity="1.1224509775638580e-01" nType="0">
            <Node pos="l" depth="3" NCoef="0" IVar="-1" Cut="0.0000000000000000e+00" cType="1" res="-2.5584418326616287e-02" rms="3.1769499182701111e-01" purity="1.2675361335277557e-01" nType="-99"/>
            <Node pos="r" depth="3" NCoef="0" IVar="-1" Cut="0.0000000000000000e+00" cType="1" res="-6.2191452831029892e-02" rms="1.1311538517475128e-01" purity="9.7376368939876556e-03" nType="-99"/>
          </Node>
        </Node>
      </Node>
    </BinaryTree>
    <BinaryTree type="DecisionTree" boostWeight="1.0000000000000000e+00" itree="11">
      <Node pos="s" depth="0" NCoef="0" IVar="0" Cut="7.4245152063667774e-03" cType="1" res="7.2686061263084412e-02" rms="4.0442094206809998e-01" purity="5.0000000000000000e-01" nType="0">
        <Node pos="l" depth="1" NCoef="0" IVar="0" Cut="1.6907409299165010e-03" cType="1" res="3.1442260742187500e-01" rms="3.2615280151367188e-01" purity="8.7403905391693115e-01" nType="0">
          <Node pos="l" depth="2" NCoef="0" IVar="-1" Cut="0.0000000000000000e+00" cType="1" res="1.1489325203001499e-02" rms="2.4800580739974976e-01" purity="9.3309974670410156e-01" nType="-99"/>
          <Node pos="r" depth="2" NCoef="0" IVar="-1" Cut="0.0000000000000000e+00" cType="1" res="7.8836614266037941e-03" rms="4.2595577239990234e-01" purity="7.5277698040008545e-01" nType="-99"/>
        </Node>
        <Node pos="r" depth="1" NCoef="0" IVar="0" Cut="1.4407983981072903e-02" cType="1" res="-1.3940165936946869e-01" rms="3.4274366497993469e-01" purity="1.7183659970760345e-01" nType="0">
          <Node pos="l" depth="2" NCoef="0" IVar="-1" Cut="0.0000000000000000e+00" cType="1" res="6.1832362553104758e-04" rms="4.9458670616149902e-01" purity="5.1284837722778320e-01" nType="-99"/>
          <Node pos="r" depth="2" NCoef="0" IVar="0" Cut="2.4260867387056351e-02" cType="1" res="-1.6584949195384979e-01" rms="3.0091997981071472e-01" purity="1.1224509775638580e-01" nType="0">
            <Node pos="l" depth="3" NCoef="0" IVar="-1" Cut="0.0000000000000000e+00" cType="1" res="-8.7501993402838707e-03" rms="4.5082506537437439e-01" purity="2.9344853758811951e-01" nType="-99"/>
            <Node pos="r" depth="3" NCoef="0" IVar="-1" Cut="0.0000000000000000e+00" cType="1" res="-3.6529451608657837e-02" rms="2.5904536247253418e-01" purity="7.5852788984775543e-02" nType="-99"/>
          </Node>
        </Node>
      </Node>
    </BinaryTree>
    <BinaryTree type="DecisionTree" boostWeight="1.0000000000000000e+00" itree="12">
      <Node pos="s" depth="0" NCoef="0" IVar="0" Cut="7.4245152063667774e-03" cType="1" res="7.5693346560001373e-02" rms="3.9974203705787659e-01" purity="5.0000000000000000e-01" nType="0">
        <Node pos="l" depth="1" NCoef="0" IVar="0" Cut="2.2053096909075975e-03" cType="1" res="3.0935582518577576e-01" rms="3.2597294449806213e-01" purity="8.7403905391693115e-01" nType="0">
          <Node pos="l" depth="2" NCoef="0" IVar="0" Cut="4.8036800581030548e-04" cType="1" res="3.5439157485961914e-01" rms="2.5972834229469299e-01" purity="9.2589819431304932e-01" nType="0">
            <Node pos="l" depth="3" NCoef="0" IVar="-1" Cut="0.0000000000000000e+00" cType="1" res="1.1562060564756393e-02" rms="2.0499621331691742e-01" purity="9.5570635795593262e-01" nType="-99"/>
            <Node pos="r" depth="3" NCoef="0" IVar="-1" Cut="0.0000000000000000e+00" cType="1" res="1.0725341737270355e-02" rms="3.1841093301773071e-01" purity="8.8308477401733398e-01" nType="-99"/>
          </Node>
          <Node pos="r" depth="2" NCoef="0" IVar="-1" Cut="0.0000000000000000e+00" cType="1" res="7.2659878060221672e-03" rms="4.3677857518196106e-01" purity="7.3397874832153320e-01" nType="-99"/>
        </Node>
        <Node pos="r" depth="1" NCoef="0" IVar="0" Cut="1.3244077563285828e-02" cType="1" res="-1.2931059300899506e-01" rms="3.4181082248687744e-01" purity="1.7183659970760345e-01" nType="0">
          <Node pos="l" depth="2" NCoef="0" IVar="-1" Cut="0.0000000000000000e+00" cType="1" res="1.2223316589370370e-03" rms="4.9375304579734802e-01" purity="5.2844977378845215e-01" nType="-99"/>
          <Node pos="r" depth="2" NCoef="0" IVar="0" Cut="2.6519529521465302e-02" cType="1" res="-1.5194174647331238e-01" rms="3.0680355429649353e-01" purity="1.1925174295902252e-01" nType="0">
            <Node pos="l" depth="3" NCoef="0" IVar="-1" Cut="0.0000000000000000e+00" cType="1" res="-8.4767453372478485e-03" rms="4.4872248172760010e-01" purity="2.9289269447326660e-01" nType="-99"/>
            <Node pos="r" depth="3" NCoef="0" IVar="-1" Cut="0.0000000000000000e+00" cType="1" res="-3.6777701228857040e-02" rms="2.5087955594062805e-01" purity="7.0123665034770966e-02" nType="-99"/>
          </Node>
        </Node>
      </Node>
    </BinaryTree>
    <BinaryTree type="DecisionTree" boostWeight="1.0000000000000000e+00" itree="13">
      <Node pos="s" depth="0" NCoef="0" IVar="0" Cut="7.4245152063667774e-03" cType="1" res="7.8411713242530823e-02" rms="3.9538764953613281e-01" purity="5.0000000000000000e-01" nType="0">
        <Node pos="l" depth="1" NCoef="0" IVar="0" Cut="1.6907409299165010e-03" cType="1" res="3.0438148975372314e-01" rms="3.2577455043792725e-01" purity="8.7403905391693115e-01" nType="0">
          <Node pos="l" depth="2" NCoef="0" IVar="-1" Cut="0.0000000000000000e+00" cType="1" res="1.1214172467589378e-02" rms="2.4799367785453796e-01" purity="9.3309974670410156e-01" nType="-99"/>
          <Node pos="r" depth="2" NCoef="0" IVar="-1" Cut="0.0000000000000000e+00" cType="1" res="7.6125538907945156e-03" rms="4.2591851949691772e-01" purity="7.5277698040008545e-01" nType="-99"/>
        </Node>
        <Node pos="r" depth="1" NCoef="0" IVar="0" Cut="1.3244077563285828e-02" cType="1" res="-1.1984300613403320e-01" rms="3.4098669886589050e-01" purity="1.7183659970760345e-01" nType="0">
          <Node pos="l" depth="2" NCoef="0" IVar="-1" Cut="0.0000000000000000e+00" cType="1" res="1.1915273498743773e-03" rms="4.9375328421592712e-01" purity="5.2844977378845215e-01" nType="-99"/>
          <Node pos="r" depth="2" NCoef="0" IVar="1" Cut="7.6940670013427734e+00" cType="1" res="-1.4098814129829407e-01" rms="3.0657616257667542e-01" purity="1.1925174295902252e-01" nType="0">
            <Node pos="l" depth="3" NCoef="0" IVar="-1" Cut="0.0000000000000000e+00" cType="1" res="-2.0518485456705093e-02" rms="3.2322597503662109e-01" purity="1.3452690839767456e-01" nType="-99"/>
            <Node pos="r" depth="3" NCoef="0" IVar="-1" Cut="0.0000000000000000e+00" cType="1" res="-5.8449439704418182e-02" rms="1.1830335110425949e-01" purity="1.0159837082028389e-02" nType="-99"/>
          </Node>
        </Node>
      </Node>
    </BinaryTree>
    <BinaryTree type="DecisionTree" boostWeight="1.0000000000000000e+00" itree="14">
      <Node pos="s" depth="0" NCoef="0" IVar="0" Cut="6.1870985664427280e-03" cType="1" res="8.0280832946300507e-02" rms="3.9164280891418457e-01" purity="5.0000000000000000e-01" nType="0">
        <Node pos="l" depth="1" NCoef="0" IVar="0" Cut="1.6539861680939794e-03" cType="1" res="3.0894050002098083e-01" rms="3.1392270326614380e-01" purity="8.8461607694625854e-01" nType="0">
          <Node pos="l" depth="2" NCoef="0" IVar="-1" Cut="0.0000000000000000e+00" cType="1" res="1.1086460202932358e-02" rms="2.4710594117641449e-01" purity="9.3362456560134888e-01" nType="-99"/>
          <Node pos="r" depth="2" NCoef="0" IVar="-1" Cut="0.0000000000000000e+00" cType="1" res="7.9777231439948082e-03" rms="4.1481429338455200e-01" purity="7.7118712663650513e-01" nType="-99"/>
        </Node>
        <Node pos="r" depth="1" NCoef="0" IVar="0" Cut="1.3244102708995342e-02" cType="1" res="-1.0443694889545441e-01" rms="3.4831672906875610e-01" purity="1.8929615616798401e-01" nType="0">
          <Node pos="l" depth="2" NCoef="0" IVar="-1" Cut="0.0000000000000000e+00" cType="1" res="1.9081856589764357e-03" rms="4.9009752273559570e-01" purity="5.5490255355834961e-01" nType="-99"/>
          <Node pos="r" depth="2" NCoef="0" IVar="0" Cut="5.6389316916465759e-02" cType="1" res="-1.3193769752979279e-01" rms="3.0634438991546631e-01" purity="1.1925183236598969e-01" nType="0">
            <Node pos="l" depth="3" NCoef="0" IVar="-1" Cut="0.0000000000000000e+00" cType="1" res="-1.4337808825075626e-02" rms="3.6539936065673828e-01" purity="1.7577736079692841e-01" nType="-99"/>
            <Node pos="r" depth="3" NCoef="0" IVar="-1" Cut="0.0000000000000000e+00" cType="1" res="-5.1934730261564255e-02" rms="1.7749391496181488e-01" purity="3.2697185873985291e-02" nType="-99"/>
          </Node>
        </Node>
      </Node>
    </BinaryTree>
    <BinaryTree type="DecisionTree" boostWeight="1.0000000000000000e+00" itree="15">
      <Node pos="s" depth="0" NCoef="0" IVar="0" Cut="6.1870985664427280e-03" cType="1" res="8.2474805414676666e-02" rms="3.8781383633613586e-01" purity="5.0000000000000000e-01" nType="0">
        <Node pos="l" depth="1" NCoef="0" IVar="0" Cut="1.6539861680939794e-03" cType="1" res="3.0399933457374573e-01" rms="3.1379583477973938e-01" purity="8.8461607694625854e-01" nType="0">
          <Node pos="l" depth="2" NCoef="0" IVar="-1" Cut="0.0000000000000000e+00" cType="1" res="1.0958148166537285e-02" rms="2.4711175262928009e-01" purity="9.3362456560134888e-01" nType="-99"/>
          <Node pos="r" depth="2" NCoef="0" IVar="-1" Cut="0.0000000000000000e+00" cType="1" res="7.8461496159434319e-03" rms="4.1482278704643250e-01" purity="7.7118712663650513e-01" nType="-99"/>
        </Node>
        <Node pos="r" depth="1" NCoef="0" IVar="0" Cut="1.3244102708995342e-02" cType="1" res="-9.6478998661041260e-02" rms="3.4739655256271362e-01" purity="1.8929615616798401e-01" nType="0">
          <Node pos="l" depth="2" NCoef="0" IVar="-1" Cut="0.0000000000000000e+00" cType="1" res="1.8621223280206323e-03" rms="4.9009847640991211e-01" purity="5.5490255355834961e-01" nType="-99"/>
          <Node pos="r" depth="2" NCoef="0" IVar="3" Cut="3.5181243896484375e+01" cType="1" res="-1.2227305769920349e-01" rms="3.0602225661277771e-01" purity="1.1925183236598969e-01" nType="0">
            <Node pos="l" depth="3" NCoef="0" IVar="-1" Cut="0.0000000000000000e+00" cType="1" res="-1.6654578968882561e-02" rms="3.3401465415954590e-01" purity="1.4595247805118561e-01" nType="-99"/>
            <Node pos="r" depth="3" NCoef="0" IVar="-1" Cut="0.0000000000000000e+00" cType="1" res="-3.7882614880800247e-02" rms="2.1384759247303009e-01" purity="5.0863668322563171e-02" nType="-99"/>
          </Node>
        </Node>
      </Node>
    </BinaryTree>
    <BinaryTree type="DecisionTree" boostWeight="1.0000000000000000e+00" itree="16">
      <Node pos="s" depth="0" NCoef="0" IVar="0" Cut="6.1870985664427280e-03" cType="1" res="8.3805032074451447e-02" rms="3.8463562726974487e-01" purity="5.0000000000000000e-01" nType="0">
        <Node pos="l" depth="1" NCoef="0" IVar="0" Cut="1.6539861680939794e-03" cType="1" res="2.9913792014122009e-01" rms="3.1367167830467224e-01" purity="8.8461607694625854e-01" nType="0">
          <Node pos="l" depth="2" NCoef="0" IVar="-1" Cut="0.0000000000000000e+00" cType="1" res="1.0833388194441795e-02" rms="2.4711789190769196e-01" purity="9.3362456560134888e-01" nType="-99"/>
          <Node pos="r" depth="2" NCoef="0" IVar="-1" Cut="0.0000000000000000e+00" cType="1" res="7.7174273319542408e-03" rms="4.1483175754547119e-01" purity="7.7118712663650513e-01" nType="-99"/>
        </Node>
        <Node pos="r" depth="1" NCoef="0" IVar="0" Cut="1.4420260675251484e-02" cType="1" res="-9.0146996080875397e-02" rms="3.4678423404693604e-01" purity="1.8929615616798401e-01" nType="0">
          <Node pos="l" depth="2" NCoef="0" IVar="-1" Cut="0.0000000000000000e+00" cType="1" res="1.4564543962478638e-03" rms="4.9072816967964172e-01" purity="5.3941357135772705e-01" nType="-99"/>
          <Node pos="r" depth="2" NCoef="0" IVar="3" Cut="2.6704490661621094e+01" cType="1" res="-1.1641471832990646e-01" rms="2.9982724785804749e-01" purity="1.1222248524427414e-01" nType="0">
            <Node pos="l" depth="3" NCoef="0" IVar="-1" Cut="0.0000000000000000e+00" cType="1" res="-1.3740858063101768e-02" rms="3.4846946597099304e-01" purity="1.5893237292766571e-01" nType="-99"/>
            <Node pos="r" depth="3" NCoef="0" IVar="-1" Cut="0.0000000000000000e+00" cType="1" res="-3.1214017421007156e-02" rms="2.5047317147254944e-01" purity="7.3177181184291840e-02" nType="-99"/>
          </Node>
        </Node>
      </Node>
    </BinaryTree>
    <BinaryTree type="DecisionTree" boostWeight="1.0000000000000000e+00" itree="17">
      <Node pos="s" depth="0" NCoef="0" IVar="0" Cut="6.1870985664427280e-03" cType="1" res="8.5067935287952423e-02" rms="3.8160789012908936e-01" purity="5.0000000000000000e-01" nType="0">
        <Node pos="l" depth="1" NCoef="0" IVar="0" Cut="1.6539861680939794e-03" cType="1" res="2.9435497522354126e-01" rms="3.1355017423629761e-01" purity="8.8461607694625854e-01" nType="0">
          <Node pos="l" depth="2" NCoef="0" IVar="-1" Cut="0.0000000000000000e+00" cType="1" res="1.0712008923292160e-02" rms="2.4712434411048889e-01" purity="9.3362456560134888e-01" nType="-99"/>
          <Node pos="r" depth="2" NCoef="0" IVar="-1" Cut="0.0000000000000000e+00" cType="1" res="7.5914454646408558e-03" rms="4.1484114527702332e-01" purity="7.7118712663650513e-01" nType="-99"/>
        </Node>
        <Node pos="r" depth="1" NCoef="0" IVar="0" Cut="1.2067944742739201e-02" cType="1" res="-8.4000080823898315e-02" rms="3.4623104333877563e-01" purity="1.8929615616798401e-01" nType="0">
          <Node pos="l" depth="2" NCoef="0" IVar="-1" Cut="0.0000000000000000e+00" cType="1" res="2.2555917967110872e-03" rms="4.8798677325248718e-01" purity="5.7028627395629883e-01" nType="-99"/>
          <Node pos="r" depth="2" NCoef="0" IVar="0" Cut="2.2129340097308159e-02" cType="1" res="-1.0530365258455276e-01" rms="3.1216886639595032e-01" purity="1.2752349674701691e-01" nType="0">
            <Node pos="l" depth="3" NCoef="0" IVar="-1" Cut="0.0000000000000000e+00" cType="1" res="-3.7404834292829037e-03" rms="4.6779993176460266e-01" purity="3.4349825978279114e-01" nType="-99"/>
            <Node pos="r" depth="3" NCoef="0" IVar="-1" Cut="0.0000000000000000e+00" cType="1" res="-2.7336614206433296e-02" rms="2.6649037003517151e-01" purity="8.1853494048118591e-02" nType="-99"/>
          </Node>
        </Node>
      </Node>
    </BinaryTree>
    <BinaryTree type="DecisionTree" boostWeight="1.0000000000000000e+00" itree="18">
      <Node pos="s" depth="0" NCoef="0" IVar="0" Cut="6.1870985664427280e-03" cType="1" res="8.6342222988605499e-02" rms="3.7867960333824158e-01" purity="5.0000000000000000e-01" nType="0">
        <Node pos="l" depth="1" NCoef="0" IVar="0" Cut="1.4702115440741181e-03" cType="1" res="2.8964915871620178e-01" rms="3.1343123316764832e-01" purity="8.8461607694625854e-01" nType="0">
          <Node pos="l" depth="2" NCoef="0" IVar="-1" Cut="0.0000000000000000e+00" cType="1" res="1.0634749196469784e-02" rms="2.4249471724033356e-01" purity="9.3632328510284424e-01" nType="-99"/>
          <Node pos="r" depth="2" NCoef="0" IVar="-1" Cut="0.0000000000000000e+00" cType="1" res="7.6338597573339939e-03" rms="4.0973088145256042e-01" purity="7.7863156795501709e-01" nType="-99"/>
        </Node>
        <Node pos="r" depth="1" NCoef="0" IVar="0" Cut="1.2067944742739201e-02" cType="1" res="-7.7894903719425201e-02" rms="3.4570893645286560e-01" purity="1.8929615616798401e-01" nType="0">
          <Node pos="l" depth="2" NCoef="0" IVar="-1" Cut="0.0000000000000000e+00" cType="1" res="2.2027459926903248e-03" rms="4.8798814415931702e-01" purity="5.7028627395629883e-01" nType="-99"/>
          <Node pos="r" depth="2" NCoef="0" IVar="1" Cut="7.6940670013427734e+00" cType="1" res="-9.8026640713214874e-02" rms="3.1205347180366516e-01" purity="1.2752349674701691e-01" nType="0">
            <Node pos="l" depth="3" NCoef="0" IVar="-1" Cut="0.0000000000000000e+00" cType="1" res="-1.4383608475327492e-02" rms="3.2864841818809509e-01" purity="1.4368684589862823e-01" nType="-99"/>
            <Node pos="r" depth="3" NCoef="0" IVar="-1" Cut="0.0000000000000000e+00" cType="1" res="-5.4731506854295731e-02" rms="1.2396509945392609e-01" purity="1.0738607496023178e-02" nType="-99"/>
          </Node>
        </Node>
      </Node>
    </BinaryTree>
    <BinaryTree type="DecisionTree" boostWeight="1.0000000000000000e+00" itree="19">
      <Node pos="s" depth="0" NCoef="0" IVar="0" Cut="6.1870985664427280e-03" cType="1" res="8.7074607610702515e-02" rms="3.7606710195541382e-01" purity="5.0000000000000000e-01" nType="0">
        <Node pos="l" depth="1" NCoef="0" IVar="0" Cut="1.6539861680939794e-03" cType="1" res="2.8501889109611511e-01" rms="3.1331735849380493e-01" purity="8.8461607694625854e-01" nType="0">
          <Node pos="l" depth="2" NCoef="0" IVar="-1" Cut="0.0000000000000000e+00" cType="1" res="1.0479613207280636e-02" rms="2.4712410569190979e-01" purity="9.3362456560134888e-01" nType="-99"/>
          <Node pos="r" depth="2" NCoef="0" IVar="-1" Cut="0.0000000000000000e+00" cType="1" res="7.3446123860776424e-03" rms="4.1486135125160217e-01" purity="7.7118712663650513e-01" nType="-99"/>
        </Node>
        <Node pos="r" depth="1" NCoef="0" IVar="0" Cut="1.6772575676441193e-02" cType="1" res="-7.2830401360988617e-02" rms="3.4518134593963623e-01" purity="1.8929615616798401e-01" nType="0">
          <Node pos="l" depth="2" NCoef="0" IVar="0" Cut="1.0588956996798515e-02" cType="1" res="1.8814563751220703e-02" rms="4.8833054304122925e-01" purity="5.0955063104629517e-01" nType="0">
            <Node pos="l" depth="3" NCoef="0" IVar="-1" Cut="0.0000000000000000e+00" cType="1" res="2.8292359784245491e-03" rms="4.8428243398666382e-01" purity="5.9334266185760498e-01" nType="-99"/>
            <Node pos="r" depth="3" NCoef="0" IVar="-1" Cut="0.0000000000000000e+00" cType="1" res="-1.5883271116763353e-03" rms="4.8860648274421692e-01" purity="4.2073681950569153e-01" nType="-99"/>
          </Node>
          <Node pos="r" depth="2" NCoef="0" IVar="0" Cut="4.4627722352743149e-02" cType="1" res="-9.8091877996921539e-02" rms="2.8863111138343811e-01" purity="1.0101963579654694e-01" nType="0">
            <Node pos="l" depth="3" NCoef="0" IVar="-1" Cut="0.0000000000000000e+00" cType="1" res="-1.0289376601576805e-02" rms="3.7477329373359680e-01" purity="1.7977800965309143e-01" nType="-99"/>
            <Node pos="r" depth="3" NCoef="0" IVar="-1" Cut="0.0000000000000000e+00" cType="1" res="-4.0822539478540421e-02" rms="2.0027256011962891e-01" purity="4.2416971176862717e-02" nType="-99"/>
          </Node>
        </Node>
      </Node>
    </BinaryTree>
    <BinaryTree type="DecisionTree" boostWeight="1.0000000000000000e+00" itree="20">
      <Node pos="s" depth="0" NCoef="0" IVar="0" Cut="6.1870985664427280e-03" cType="1" res="8.8316783308982849e-02" rms="3.7328851222991943e-01" purity="5.0000000000000000e-01" nType="0">
        <Node pos="l" depth="1" NCoef="0" IVar="0" Cut="1.4089533360674977e-03" cType="1" res="2.8046366572380066e-01" rms="3.1320324540138245e-01" purity="8.8461607694625854e-01" nType="0">
          <Node pos="l" depth="2" NCoef="0" IVar="-1" Cut="0.0000000000000000e+00" cType="1" res="1.0426387190818787e-02" rms="2.4076730012893677e-01" purity="9.3731576204299927e-01" nType="-99"/>
          <Node pos="r" depth="2" NCoef="0" IVar="-1" Cut="0.0000000000000000e+00" cType="1" res="7.4439072050154209e-03" rms="4.0795591473579407e-01" purity="7.8117072582244873e-01" nType="-99"/>
        </Node>
        <Node pos="r" depth="1" NCoef="0" IVar="0" Cut="1.0891786776483059e-02" cType="1" res="-6.6904932260513306e-02" rms="3.4459614753723145e-01" purity="1.8929615616798401e-01" nType="0">
          <Node pos="l" depth="2" NCoef="0" IVar="-1" Cut="0.0000000000000000e+00" cType="1" res="2.6414608582854271e-03" rms="4.8500868678092957e-01" purity="5.8888304233551025e-01" nType="-99"/>
          <Node pos="r" depth="2" NCoef="0" IVar="1" Cut="7.6940670013427734e+00" cType="1" res="-8.3318471908569336e-02" rms="3.1776833534240723e-01" purity="1.3622207939624786e-01" nType="0">
            <Node pos="l" depth="3" NCoef="0" IVar="-1" Cut="0.0000000000000000e+00" cType="1" res="-1.1714571155607700e-02" rms="3.3438679575920105e-01" purity="1.5332475304603577e-01" nType="-99"/>
            <Node pos="r" depth="3" NCoef="0" IVar="-1" Cut="0.0000000000000000e+00" cType="1" res="-5.3247570991516113e-02" rms="1.2948577105998993e-01" purity="1.1143459007143974e-02" nType="-99"/>
          </Node>
        </Node>
      </Node>
    </BinaryTree>
    <BinaryTree type="DecisionTree" boostWeight="1.0000000000000000e+00" itree="21">
      <Node pos="s" depth="0" NCoef="0" IVar="0" Cut="6.1870985664427280e-03" cType="1" res="8.8657066226005554e-02" rms="3.7103220820426941e-01" purity="5.0000000000000000e-01" nType="0">
        <Node pos="l" depth="1" NCoef="0" IVar="0" Cut="1.6539861680939794e-03" cType="1" res="2.7598127722740173e-01" rms="3.1309458613395691e-01" purity="8.8461607694625854e-01" nType="0">
          <Node pos="l" depth="2" NCoef="0" IVar="-1" Cut="0.0000000000000000e+00" cType="1" res="1.0259145870804787e-02" rms="2.4712073802947998e-01" purity="9.3362456560134888e-01" nType="-99"/>
          <Node pos="r" depth="2" NCoef="0" IVar="-1" Cut="0.0000000000000000e+00" cType="1" res="7.1068541146814823e-03" rms="4.1488307714462280e-01" purity="7.7118712663650513e-01" nType="-99"/>
        </Node>
        <Node pos="r" depth="1" NCoef="0" IVar="0" Cut="2.0301049575209618e-02" cType="1" res="-6.2668770551681519e-02" rms="3.4414830803871155e-01" purity="1.8929615616798401e-01" nType="0">
          <Node pos="l" depth="2" NCoef="0" IVar="0" Cut="1.0658876970410347e-02" cType="1" res="1.0595939122140408e-02" rms="4.8164787888526917e-01" purity="4.7060379385948181e-01" nType="0">
            <Node pos="l" depth="3" NCoef="0" IVar="-1" Cut="0.0000000000000000e+00" cType="1" res="2.6844330132007599e-03" rms="4.8444896936416626e-01" purity="5.9241902828216553e-01" nType="-99"/>
            <Node pos="r" depth="3" NCoef="0" IVar="-1" Cut="0.0000000000000000e+00" cType="1" res="-1.6361251473426819e-03" rms="4.7658097743988037e-01" purity="3.8073781132698059e-01" nType="-99"/>
          </Node>
          <Node pos="r" depth="2" NCoef="0" IVar="3" Cut="3.5421192169189453e+01" cType="1" res="-8.9127637445926666e-02" rms="2.7348339557647705e-01" purity="8.7704531848430634e-02" nType="0">
            <Node pos="l" depth="3" NCoef="0" IVar="-1" Cut="0.0000000000000000e+00" cType="1" res="-1.7619159072637558e-02" rms="2.9966300725936890e-01" purity="1.0741258412599564e-01" nType="-99"/>
            <Node pos="r" depth="3" NCoef="0" IVar="-1" Cut="0.0000000000000000e+00" cType="1" res="-3.6320108920335770e-02" rms="1.9708733260631561e-01" purity="4.1621115058660507e-02" nType="-99"/>
          </Node>
        </Node>
      </Node>
    </BinaryTree>
    <BinaryTree type="DecisionTree" boostWeight="1.0000000000000000e+00" itree="22">
      <Node pos="s" depth="0" NCoef="0" IVar="0" Cut="6.1870985664427280e-03" cType="1" res="8.9257389307022095e-02" rms="3.6875802278518677e-01" purity="5.0000000000000000e-01" nType="0">
        <Node pos="l" depth="1" NCoef="0" IVar="0" Cut="1.4089533360674977e-03" cType="1" res="2.7157178521156311e-01" rms="3.1298503279685974e-01" purity="8.8461607694625854e-01" nType="0">
          <Node pos="l" depth="2" NCoef="0" IVar="-1" Cut="0.0000000000000000e+00" cType="1" res="1.0212104767560959e-02" rms="2.4078127741813660e-01" purity="9.3731576204299927e-01" nType="-99"/>
          <Node pos="r" depth="2" NCoef="0" IVar="-1" Cut="0.0000000000000000e+00" cType="1" res="7.2108395397663116e-03" rms="4.0795746445655823e-01" purity="7.8117072582244873e-01" nType="-99"/>
        </Node>
        <Node pos="r" depth="1" NCoef="0" IVar="0" Cut="1.6772575676441193e-02" cType="1" res="-5.8021374046802521e-02" rms="3.4373873472213745e-01" purity="1.8929615616798401e-01" nType="0">
          <Node pos="l" depth="2" NCoef="0" IVar="0" Cut="1.0588956996798515e-02" cType="1" res="2.0746234804391861e-02" rms="4.8734545707702637e-01" purity="5.0955063104629517e-01" nType="0">
            <Node pos="l" depth="3" NCoef="0" IVar="-1" Cut="0.0000000000000000e+00" cType="1" res="2.6451004669070244e-03" rms="4.8428869247436523e-01" purity="5.9334266185760498e-01" nType="-99"/>
            <Node pos="r" depth="3" NCoef="0" IVar="-1" Cut="0.0000000000000000e+00" cType="1" res="-1.0869225952774286e-03" rms="4.8762306571006775e-01" purity="4.2073681950569153e-01" nType="-99"/>
          </Node>
          <Node pos="r" depth="2" NCoef="0" IVar="0" Cut="3.6056909710168839e-02" cType="1" res="-7.9733267426490784e-02" rms="2.8823027014732361e-01" purity="1.0101963579654694e-01" nType="0">
            <Node pos="l" depth="3" NCoef="0" IVar="-1" Cut="0.0000000000000000e+00" cType="1" res="-6.5176035277545452e-03" rms="3.9875438809394836e-01" purity="2.0964339375495911e-01" nType="-99"/>
            <Node pos="r" depth="3" NCoef="0" IVar="-1" Cut="0.0000000000000000e+00" cType="1" res="-3.2526642084121704e-02" rms="2.2115132212638855e-01" purity="5.2800673991441727e-02" nType="-99"/>
          </Node>
        </Node>
      </Node>
    </BinaryTree>
    <BinaryTree type="DecisionTree" boostWeight="1.0000000000000000e+00" itree="23">
      <Node pos="s" depth="0" NCoef="0" IVar="0" Cut="4.9496814608573914e-03" cType="1" res="8.9946419000625610e-02" rms="3.6652240157127380e-01" purity="5.0000000000000000e-01" nType="0">
        <Node pos="l" depth="1" NCoef="0" IVar="0" Cut="1.0781583841890097e-03" cType="1" res="2.7642211318016052e-01" rms="2.9994797706604004e-01" purity="8.9570033550262451e-01" nType="0">
          <Node pos="l" depth="2" NCoef="0" IVar="-1" Cut="0.0000000000000000e+00" cType="1" res="1.0201178491115570e-02" rms="2.3085591197013855e-01" purity="9.4280803203582764e-01" nType="-99"/>
          <Node pos="r" depth="2" NCoef="0" IVar="-1" Cut="0.0000000000000000e+00" cType="1" res="7.7881990000605583e-03" rms="3.8551229238510132e-01" purity="8.1167542934417725e-01" nType="-99"/>
        </Node>
        <Node pos="r" depth="1" NCoef="0" IVar="0" Cut="1.0891750454902649e-02" cType="1" res="-4.6324841678142548e-02" rms="3.5040238499641418e-01" purity="2.1083316206932068e-01" nType="0">
          <Node pos="l" depth="2" NCoef="0" IVar="-1" Cut="0.0000000000000000e+00" cType="1" res="3.1086169183254242e-03" rms="4.7774034738540649e-01" purity="6.1797195672988892e-01" nType="-99"/>
          <Node pos="r" depth="2" NCoef="0" IVar="1" Cut="7.6940670013427734e+00" cType="1" res="-6.7371547222137451e-02" rms="3.1716948747634888e-01" purity="1.3622207939624786e-01" nType="0">
            <Node pos="l" depth="3" NCoef="0" IVar="-1" Cut="0.0000000000000000e+00" cType="1" res="-9.6997050568461418e-03" rms="3.3397728204727173e-01" purity="1.5332475304603577e-01" nType="-99"/>
            <Node pos="r" depth="3" NCoef="0" IVar="-1" Cut="0.0000000000000000e+00" cType="1" res="-5.1197104156017303e-02" rms="1.2822936475276947e-01" purity="1.1143459007143974e-02" nType="-99"/>
          </Node>
        </Node>
      </Node>
    </BinaryTree>
    <BinaryTree type="DecisionTree" boostWeight="1.0000000000000000e+00" itree="24">
      <Node pos="s" depth="0" NCoef="0" IVar="0" Cut="4.9496814608573914e-03" cType="1" res="8.9912474155426025e-02" rms="3.6465841531753540e-01" purity="5.0000000000000000e-01" nType="0">
        <Node pos="l" depth="1" NCoef="0" IVar="0" Cut="1.1271649273112416e-03" cType="1" res="2.7204364538192749e-01" rms="2.9987782239913940e-01" purity="8.9570033550262451e-01" nType="0">
          <Node pos="l" depth="2" NCoef="0" IVar="-1" Cut="0.0000000000000000e+00" cType="1" res="1.0081768035888672e-02" rms="2.3239597678184509e-01" purity="9.4197595119476318e-01" nType="-99"/>
          <Node pos="r" depth="2" NCoef="0" IVar="-1" Cut="0.0000000000000000e+00" cType="1" res="7.6440949924290180e-03" rms="3.8715669512748718e-01" purity="8.0967158079147339e-01" nType="-99"/>
        </Node>
        <Node pos="r" depth="1" NCoef="0" IVar="0" Cut="1.0891750454902649e-02" cType="1" res="-4.3183926492929459e-02" rms="3.4997019171714783e-01" purity="2.1083316206932068e-01" nType="0">
          <Node pos="l" depth="2" NCoef="0" IVar="-1" Cut="0.0000000000000000e+00" cType="1" res="3.0411800835281610e-03" rms="4.7774440050125122e-01" purity="6.1797195672988892e-01" nType="-99"/>
          <Node pos="r" depth="2" NCoef="0" IVar="0" Cut="3.0094603076577187e-02" cType="1" res="-6.3374161720275879e-02" rms="3.1696319580078125e-01" purity="1.3622207939624786e-01" nType="0">
            <Node pos="l" depth="3" NCoef="0" IVar="-1" Cut="0.0000000000000000e+00" cType="1" res="-2.5866362266242504e-03" rms="4.4388535618782043e-01" purity="3.0172342061996460e-01" nType="-99"/>
            <Node pos="r" depth="3" NCoef="0" IVar="-1" Cut="0.0000000000000000e+00" cType="1" res="-2.6483012363314629e-02" rms="2.3854397237300873e-01" purity="6.2791295349597931e-02" nType="-99"/>
          </Node>
        </Node>
      </Node>
    </BinaryTree>
    <BinaryTree type="DecisionTree" boostWeight="1.0000000000000000e+00" itree="25">
      <Node pos="s" depth="0" NCoef="0" IVar="0" Cut="4.9496814608573914e-03" cType="1" res="9.0235531330108643e-02" rms="3.6274850368499756e-01" purity="5.0000000000000000e-01" nType="0">
        <Node pos="l" depth="1" NCoef="0" IVar="0" Cut="1.0781583841890097e-03" cType="1" res="2.6773533225059509e-01" rms="2.9980924725532532e-01" purity="8.9570033550262451e-01" nType="0">
          <Node pos="l" depth="2" NCoef="0" IVar="-1" Cut="0.0000000000000000e+00" cType="1" res="1.0003362782299519e-02" rms="2.3086889088153839e-01" purity="9.4280803203582764e-01" nType="-99"/>
          <Node pos="r" depth="2" NCoef="0" IVar="-1" Cut="0.0000000000000000e+00" cType="1" res="7.5645698234438896e-03" rms="3.8553839921951294e-01" purity="8.1167542934417725e-01" nType="-99"/>
        </Node>
        <Node pos="r" depth="1" NCoef="0" IVar="0" Cut="1.0891750454902649e-02" cType="1" res="-3.9476387202739716e-02" rms="3.4958732128143311e-01" purity="2.1083316206932068e-01" nType="0">
          <Node pos="l" depth="2" NCoef="0" IVar="-1" Cut="0.0000000000000000e+00" cType="1" res="2.9752112459391356e-03" rms="4.7774848341941833e-01" purity="6.1797195672988892e-01" nType="-99"/>
          <Node pos="r" depth="2" NCoef="0" IVar="0" Cut="4.1390378028154373e-02" cType="1" res="-5.8712571859359741e-02" rms="3.1684523820877075e-01" purity="1.3622207939624786e-01" nType="0">
            <Node pos="l" depth="3" NCoef="0" IVar="-1" Cut="0.0000000000000000e+00" cType="1" res="-3.8698466960340738e-03" rms="4.1098386049270630e-01" purity="2.4581100046634674e-01" nType="-99"/>
            <Node pos="r" depth="3" NCoef="0" IVar="-1" Cut="0.0000000000000000e+00" cType="1" res="-3.2706793397665024e-02" rms="2.0804204046726227e-01" purity="4.6087548136711121e-02" nType="-99"/>
          </Node>
        </Node>
      </Node>
    </BinaryTree>
    <BinaryTree type="DecisionTree" boostWeight="1.0000000000000000e+00" itree="26">
      <Node pos="s" depth="0" NCoef="0" IVar="0" Cut="4.9496814608573914e-03" cType="1" res="9.0482108294963837e-02" rms="3.6092931032180786e-01" purity="5.0000000000000000e-01" nType="0">
        <Node pos="l" depth="1" NCoef="0" IVar="0" Cut="8.8213226990774274e-04" cType="1" res="2.6349538564682007e-01" rms="2.9974204301834106e-01" purity="8.9570033550262451e-01" nType="0">
          <Node pos="l" depth="2" NCoef="0" IVar="-1" Cut="0.0000000000000000e+00" cType="1" res="9.9607594311237335e-03" rms="2.2363981604576111e-01" purity="9.4661951065063477e-01" nType="-99"/>
          <Node pos="r" depth="2" NCoef="0" IVar="-1" Cut="0.0000000000000000e+00" cType="1" res="7.6390593312680721e-03" rms="3.7847775220870972e-01" purity="8.2016134262084961e-01" nType="-99"/>
        </Node>
        <Node pos="r" depth="1" NCoef="0" IVar="0" Cut="1.0891750454902649e-02" cType="1" res="-3.5951193422079086e-02" rms="3.4921506047248840e-01" purity="2.1083316206932068e-01" nType="0">
          <Node pos="l" depth="2" NCoef="0" IVar="-1" Cut="0.0000000000000000e+00" cType="1" res="2.9106759466230869e-03" rms="4.7775259613990784e-01" purity="6.1797195672988892e-01" nType="-99"/>
          <Node pos="r" depth="2" NCoef="0" IVar="1" Cut="7.6940670013427734e+00" cType="1" res="-5.4272875189781189e-02" rms="3.1670829653739929e-01" purity="1.3622207939624786e-01" nType="0">
            <Node pos="l" depth="3" NCoef="0" IVar="-1" Cut="0.0000000000000000e+00" cType="1" res="-7.9281367361545563e-03" rms="3.3368483185768127e-01" purity="1.5332475304603577e-01" nType="-99"/>
            <Node pos="r" depth="3" NCoef="0" IVar="-1" Cut="0.0000000000000000e+00" cType="1" res="-4.9363542348146439e-02" rms="1.2680459022521973e-01" purity="1.1143459007143974e-02" nType="-99"/>
          </Node>
        </Node>
      </Node>
    </BinaryTree>
    <BinaryTree type="DecisionTree" boostWeight="1.0000000000000000e+00" itree="27">
      <Node pos="s" depth="0" NCoef="0" IVar="0" Cut="4.9496814608573914e-03" cType="1" res="9.0158224105834961e-02" rms="3.5937768220901489e-01" purity="5.0000000000000000e-01" nType="0">
        <Node pos="l" depth="1" NCoef="0" IVar="0" Cut="1.1271649273112416e-03" cType="1" res="2.5932279229164124e-01" rms="2.9967930912971497e-01" purity="8.9570033550262451e-01" nType="0">
          <Node pos="l" depth="2" NCoef="0" IVar="-1" Cut="0.0000000000000000e+00" cType="1" res="9.7962459549307823e-03" rms="2.3239541053771973e-01" purity="9.4197595119476318e-01" nType="-99"/>
          <Node pos="r" depth="2" NCoef="0" IVar="-1" Cut="0.0000000000000000e+00" cType="1" res="7.3142638429999352e-03" rms="3.8720282912254333e-01" purity="8.0967158079147339e-01" nType="-99"/>
        </Node>
        <Node pos="r" depth="1" NCoef="0" IVar="0" Cut="1.4456980861723423e-02" cType="1" res="-3.3462543040513992e-02" rms="3.4886953234672546e-01" purity="2.1083316206932068e-01" nType="0">
          <Node pos="l" depth="2" NCoef="0" IVar="0" Cut="8.8090626522898674e-03" cType="1" res="4.5056067407131195e-02" rms="4.8263731598854065e-01" purity="5.6984156370162964e-01" nType="0">
            <Node pos="l" depth="3" NCoef="0" IVar="-1" Cut="0.0000000000000000e+00" cType="1" res="3.4826016053557396e-03" rms="4.7075831890106201e-01" purity="6.4863121509552002e-01" nType="-99"/>
            <Node pos="r" depth="3" NCoef="0" IVar="-1" Cut="0.0000000000000000e+00" cType="1" res="4.6086384099908173e-04" rms="4.9246984720230103e-01" purity="4.8516672849655151e-01" nType="-99"/>
          </Node>
          <Node pos="r" depth="2" NCoef="0" IVar="0" Cut="6.2605246901512146e-02" cType="1" res="-5.5086806416511536e-02" rms="2.9818058013916016e-01" purity="1.1196113377809525e-01" nType="0">
            <Node pos="l" depth="3" NCoef="0" IVar="-1" Cut="0.0000000000000000e+00" cType="1" res="-7.3972889222204685e-03" rms="3.4557595849037170e-01" purity="1.5410773456096649e-01" nType="-99"/>
            <Node pos="r" depth="3" NCoef="0" IVar="-1" Cut="0.0000000000000000e+00" cType="1" res="-4.2360950261354446e-02" rms="1.6655284166336060e-01" purity="2.8663234785199165e-02" nType="-99"/>
          </Node>
        </Node>
      </Node>
    </BinaryTree>
    <BinaryTree type="DecisionTree" boostWeight="1.0000000000000000e+00" itree="28">
      <Node pos="s" depth="0" NCoef="0" IVar="0" Cut="4.9496814608573914e-03" cType="1" res="9.0166300535202026e-02" rms="3.5776615142822266e-01" purity="5.0000000000000000e-01" nType="0">
        <Node pos="l" depth="1" NCoef="0" IVar="0" Cut="8.8213226990774274e-04" cType="1" res="2.5521734356880188e-01" rms="2.9961475729942322e-01" purity="8.9570033550262451e-01" nType="0">
          <Node pos="l" depth="2" NCoef="0" IVar="-1" Cut="0.0000000000000000e+00" cType="1" res="9.7785610705614090e-03" rms="2.2365182638168335e-01" purity="9.4661951065063477e-01" nType="-99"/>
          <Node pos="r" depth="2" NCoef="0" IVar="-1" Cut="0.0000000000000000e+00" cType="1" res="7.4259107932448387e-03" rms="3.7849348783493042e-01" purity="8.2016134262084961e-01" nType="-99"/>
        </Node>
        <Node pos="r" depth="1" NCoef="0" IVar="0" Cut="1.0891750454902649e-02" cType="1" res="-3.0448412522673607e-02" rms="3.4853523969650269e-01" purity="2.1083316206932068e-01" nType="0">
          <Node pos="l" depth="2" NCoef="0" IVar="-1" Cut="0.0000000000000000e+00" cType="1" res="2.7908603660762310e-03" rms="4.7772440314292908e-01" purity="6.1797195672988892e-01" nType="-99"/>
          <Node pos="r" depth="2" NCoef="0" IVar="3" Cut="2.6664224624633789e+01" cType="1" res="-4.7262046486139297e-02" rms="3.1636992096900940e-01" purity="1.3622207939624786e-01" nType="0">
            <Node pos="l" depth="3" NCoef="0" IVar="-1" Cut="0.0000000000000000e+00" cType="1" res="-3.7746850866824389e-03" rms="3.6713984608650208e-01" purity="1.9479709863662720e-01" nType="-99"/>
            <Node pos="r" depth="3" NCoef="0" IVar="-1" Cut="0.0000000000000000e+00" cType="1" res="-1.7825692892074585e-02" rms="2.6015466451644897e-01" purity="8.2735620439052582e-02" nType="-99"/>
          </Node>
        </Node>
      </Node>
    </BinaryTree>
    <BinaryTree type="DecisionTree" boostWeight="1.0000000000000000e+00" itree="29">
      <Node pos="s" depth="0" NCoef="0" IVar="0" Cut="4.9496814608573914e-03" cType="1" res="8.9689813554286957e-02" rms="3.5644021630287170e-01" purity="5.0000000000000000e-01" nType="0">
        <Node pos="l" depth="1" NCoef="0" IVar="0" Cut="1.1271649273112416e-03" cType="1" res="2.5117674469947815e-01" rms="2.9955449700355530e-01" purity="8.9570033550262451e-01" nType="0">
          <Node pos="l" depth="2" NCoef="0" IVar="-1" Cut="0.0000000000000000e+00" cType="1" res="9.6166366711258888e-03" rms="2.3239262402057648e-01" purity="9.4197595119476318e-01" nType="-99"/>
          <Node pos="r" depth="2" NCoef="0" IVar="-1" Cut="0.0000000000000000e+00" cType="1" res="7.1034329012036324e-03" rms="3.8723504543304443e-01" purity="8.0967158079147339e-01" nType="-99"/>
        </Node>
        <Node pos="r" depth="1" NCoef="0" IVar="0" Cut="1.8022211268544197e-02" cType="1" res="-2.8320347890257835e-02" rms="3.4833338856697083e-01" purity="2.1083316206932068e-01" nType="0">
          <Node pos="l" depth="2" NCoef="0" IVar="0" Cut="8.8326195254921913e-03" cType="1" res="3.4702297300100327e-02" rms="4.8043018579483032e-01" purity="5.2730435132980347e-01" nType="0">
            <Node pos="l" depth="3" NCoef="0" IVar="-1" Cut="0.0000000000000000e+00" cType="1" res="3.3353746403008699e-03" rms="4.7091299295425415e-01" purity="6.4800506830215454e-01" nType="-99"/>
            <Node pos="r" depth="3" NCoef="0" IVar="-1" Cut="0.0000000000000000e+00" cType="1" res="3.0215043807402253e-04" rms="4.8506209254264832e-01" purity="4.3977478146553040e-01" nType="-99"/>
          </Node>
          <Node pos="r" depth="2" NCoef="0" IVar="2" Cut="3.0548536777496338e+00" cType="1" res="-5.1295716315507889e-02" rms="2.8186818957328796e-01" purity="9.5461264252662659e-02" nType="0">
            <Node pos="l" depth="3" NCoef="0" IVar="-1" Cut="0.0000000000000000e+00" cType="1" res="-6.9415499456226826e-03" rms="3.2978224754333496e-01" purity="1.3522556424140930e-01" nType="-99"/>
            <Node pos="r" depth="3" NCoef="0" IVar="-1" Cut="0.0000000000000000e+00" cType="1" res="-2.0467843860387802e-02" rms="2.4581469595432281e-01" purity="7.0105008780956268e-02" nType="-99"/>
          </Node>
        </Node>
      </Node>
    </BinaryTree>
    <BinaryTree type="DecisionTree" boostWeight="1.0000000000000000e+00" itree="30">
      <Node pos="s" depth="0" NCoef="0" IVar="0" Cut="4.9496814608573914e-03" cType="1" res="8.9366734027862549e-02" rms="3.5509464144706726e-01" purity="5.0000000000000000e-01" nType="0">
        <Node pos="l" depth="1" NCoef="0" IVar="0" Cut="8.3312572678551078e-04" cType="1" res="2.4720114469528198e-01" rms="2.9949244856834412e-01" purity="8.9570033550262451e-01" nType="0">
          <Node pos="l" depth="2" NCoef="0" IVar="-1" Cut="0.0000000000000000e+00" cType="1" res="9.6303066238760948e-03" rms="2.2164297103881836e-01" purity="9.4765496253967285e-01" nType="-99"/>
          <Node pos="r" depth="2" NCoef="0" IVar="-1" Cut="0.0000000000000000e+00" cType="1" res="7.2526829317212105e-03" rms="3.7667751312255859e-01" purity="8.2229703664779663e-01" nType="-99"/>
        </Node>
        <Node pos="r" depth="1" NCoef="0" IVar="0" Cut="1.4456980861723423e-02" cType="1" res="-2.5974277406930923e-02" rms="3.4811121225357056e-01" purity="2.1083316206932068e-01" nType="0">
          <Node pos="l" depth="2" NCoef="0" IVar="0" Cut="8.8090626522898674e-03" cType="1" res="4.3117757886648178e-02" rms="4.8237800598144531e-01" purity="5.6984156370162964e-01" nType="0">
            <Node pos="l" depth="3" NCoef="0" IVar="-1" Cut="0.0000000000000000e+00" cType="1" res="3.2854273449629545e-03" rms="4.7077378630638123e-01" purity="6.4863121509552002e-01" nType="-99"/>
            <Node pos="r" depth="3" NCoef="0" IVar="-1" Cut="0.0000000000000000e+00" cType="1" res="5.1700806943699718e-04" rms="4.9233448505401611e-01" purity="4.8516672849655151e-01" nType="-99"/>
          </Node>
          <Node pos="r" depth="2" NCoef="0" IVar="3" Cut="3.5181243896484375e+01" cType="1" res="-4.5002434402704239e-02" rms="2.9798531532287598e-01" purity="1.1196113377809525e-01" nType="0">
            <Node pos="l" depth="3" NCoef="0" IVar="-1" Cut="0.0000000000000000e+00" cType="1" res="-7.0917727425694466e-03" rms="3.2580092549324036e-01" purity="1.3705837726593018e-01" nType="-99"/>
            <Node pos="r" depth="3" NCoef="0" IVar="-1" Cut="0.0000000000000000e+00" cType="1" res="-2.5378817692399025e-02" rms="2.1092170476913452e-01" purity="4.9177240580320358e-02" nType="-99"/>
          </Node>
        </Node>
      </Node>
    </BinaryTree>
    <BinaryTree type="DecisionTree" boostWeight="1.0000000000000000e+00" itree="31">
      <Node pos="s" depth="0" NCoef="0" IVar="0" Cut="4.9496814608573914e-03" cType="1" res="8.8870406150817871e-02" rms="3.5386180877685547e-01" purity="5.0000000000000000e-01" nType="0">
        <Node pos="l" depth="1" NCoef="0" IVar="0" Cut="1.4212041860446334e-03" cType="1" res="2.4328790605068207e-01" rms="2.9943448305130005e-01" purity="8.9570033550262451e-01" nType="0">
          <Node pos="l" depth="2" NCoef="0" IVar="-1" Cut="0.0000000000000000e+00" cType="1" res="9.3697952106595039e-03" rms="2.4093864858150482e-01" purity="9.3715840578079224e-01" nType="-99"/>
          <Node pos="r" depth="2" NCoef="0" IVar="-1" Cut="0.0000000000000000e+00" cType="1" res="6.6281277686357498e-03" rms="3.9681833982467651e-01" purity="7.9753059148788452e-01" nType="-99"/>
        </Node>
        <Node pos="r" depth="1" NCoef="0" IVar="0" Cut="2.0399030297994614e-02" cType="1" res="-2.3973606526851654e-02" rms="3.4791308641433716e-01" purity="2.1083316206932068e-01" nType="0">
          <Node pos="l" depth="2" NCoef="0" IVar="1" Cut="3.1434531211853027e+00" cType="1" res="2.9740329831838608e-02" rms="4.7676587104797363e-01" purity="5.0189989805221558e-01" nType="0">
            <Node pos="l" depth="3" NCoef="0" IVar="-1" Cut="0.0000000000000000e+00" cType="1" res="6.4361104741692543e-03" rms="4.6631753444671631e-01" purity="6.3201767206192017e-01" nType="-99"/>
            <Node pos="r" depth="3" NCoef="0" IVar="-1" Cut="0.0000000000000000e+00" cType="1" res="-2.5987008586525917e-02" rms="3.8369604945182800e-01" purity="1.8486477434635162e-01" nType="-99"/>
          </Node>
          <Node pos="r" depth="2" NCoef="0" IVar="0" Cut="6.1816923320293427e-02" cType="1" res="-4.6760674566030502e-02" rms="2.7243468165397644e-01" purity="8.7353885173797607e-02" nType="0">
            <Node pos="l" depth="3" NCoef="0" IVar="-1" Cut="0.0000000000000000e+00" cType="1" res="-8.3522945642471313e-03" rms="3.2061526179313660e-01" purity="1.2376652657985687e-01" nType="-99"/>
            <Node pos="r" depth="3" NCoef="0" IVar="-1" Cut="0.0000000000000000e+00" cType="1" res="-3.8590598851442337e-02" rms="1.6753329336643219e-01" purity="2.9086686670780182e-02" nType="-99"/>
          </Node>
        </Node>
      </Node>
    </BinaryTree>
    <BinaryTree type="DecisionTree" boostWeight="1.0000000000000000e+00" itree="32">
      <Node pos="s" depth="0" NCoef="0" IVar="0" Cut="4.9496814608573914e-03" cType="1" res="8.8988497853279114e-02" rms="3.5192576050758362e-01" purity="5.0000000000000000e-01" nType="0">
        <Node pos="l" depth="1" NCoef="0" IVar="0" Cut="1.1271649273112416e-03" cType="1" res="2.3943822085857391e-01" rms="2.9937174916267395e-01" purity="8.9570033550262451e-01" nType="0">
          <Node pos="l" depth="2" NCoef="0" IVar="-1" Cut="0.0000000000000000e+00" cType="1" res="9.3613937497138977e-03" rms="2.3239509761333466e-01" purity="9.4197595119476318e-01" nType="-99"/>
          <Node pos="r" depth="2" NCoef="0" IVar="-1" Cut="0.0000000000000000e+00" cType="1" res="6.8001770414412022e-03" rms="3.8726291060447693e-01" purity="8.0967158079147339e-01" nType="-99"/>
        </Node>
        <Node pos="r" depth="1" NCoef="0" IVar="0" Cut="2.0399030297994614e-02" cType="1" res="-2.0955977961421013e-02" rms="3.4675049781799316e-01" purity="2.1083316206932068e-01" nType="0">
          <Node pos="l" depth="2" NCoef="0" IVar="1" Cut="3.1434531211853027e+00" cType="1" res="3.1055741012096405e-02" rms="4.7426941990852356e-01" purity="5.0189989805221558e-01" nType="0">
            <Node pos="l" depth="3" NCoef="0" IVar="-1" Cut="0.0000000000000000e+00" cType="1" res="6.2970994040369987e-03" rms="4.6631520986557007e-01" purity="6.3201767206192017e-01" nType="-99"/>
            <Node pos="r" depth="3" NCoef="0" IVar="-1" Cut="0.0000000000000000e+00" cType="1" res="-2.4820568040013313e-02" rms="3.8357424736022949e-01" purity="1.8486477434635162e-01" nType="-99"/>
          </Node>
          <Node pos="r" depth="2" NCoef="0" IVar="2" Cut="2.8318388462066650e+00" cType="1" res="-4.3020911514759064e-02" rms="2.7237182855606079e-01" purity="8.7353885173797607e-02" nType="0">
            <Node pos="l" depth="3" NCoef="0" IVar="-1" Cut="0.0000000000000000e+00" cType="1" res="-5.6949495337903500e-03" rms="3.2754677534103394e-01" purity="1.3145318627357483e-01" nType="-99"/>
            <Node pos="r" depth="3" NCoef="0" IVar="-1" Cut="0.0000000000000000e+00" cType="1" res="-1.9027899950742722e-02" rms="2.4147203564643860e-01" purity="6.6493630409240723e-02" nType="-99"/>
          </Node>
        </Node>
      </Node>
    </BinaryTree>
    <BinaryTree type="DecisionTree" boostWeight="1.0000000000000000e+00" itree="33">
      <Node pos="s" depth="0" NCoef="0" IVar="0" Cut="3.7122648209333420e-03" cType="1" res="8.8828779757022858e-02" rms="3.5020148754119873e-01" purity="5.0000000000000000e-01" nType="0">
        <Node pos="l" depth="1" NCoef="0" IVar="0" Cut="7.3511176742613316e-04" cType="1" res="2.4501077830791473e-01" rms="2.8399264812469482e-01" purity="9.0797525644302368e-01" nType="0">
          <Node pos="l" depth="2" NCoef="0" IVar="-1" Cut="0.0000000000000000e+00" cType="1" res="9.4164190813899040e-03" rms="2.1737036108970642e-01" purity="9.4981843233108521e-01" nType="-99"/>
          <Node pos="r" depth="2" NCoef="0" IVar="-1" Cut="0.0000000000000000e+00" cType="1" res="7.5006750412285328e-03" rms="3.5711190104484558e-01" purity="8.4488719701766968e-01" nType="-99"/>
        </Node>
        <Node pos="r" depth="1" NCoef="0" IVar="0" Cut="8.5150059312582016e-03" cType="1" res="-1.2218194082379341e-02" rms="3.5187378525733948e-01" purity="2.3604725301265717e-01" nType="0">
          <Node pos="l" depth="2" NCoef="0" IVar="-1" Cut="0.0000000000000000e+00" cType="1" res="3.7789659108966589e-03" rms="4.5646232366561890e-01" purity="6.7991328239440918e-01" nType="-99"/>
          <Node pos="r" depth="2" NCoef="0" IVar="1" Cut="7.6940670013427734e+00" cType="1" res="-2.9733756557106972e-02" rms="3.2708179950714111e-01" purity="1.5850307047367096e-01" nType="0">
            <Node pos="l" depth="3" NCoef="0" IVar="-1" Cut="0.0000000000000000e+00" cType="1" res="-3.2910807058215141e-03" rms="3.4349620342254639e-01" purity="1.7781804502010345e-01" nType="-99"/>
            <Node pos="r" depth="3" NCoef="0" IVar="-1" Cut="0.0000000000000000e+00" cType="1" res="-4.7494035214185715e-02" rms="1.3736289739608765e-01" purity="1.2282801792025566e-02" nType="-99"/>
          </Node>
        </Node>
      </Node>
    </BinaryTree>
    <BinaryTree type="DecisionTree" boostWeight="1.0000000000000000e+00" itree="34">
      <Node pos="s" depth="0" NCoef="0" IVar="0" Cut="3.7122648209333420e-03" cType="1" res="8.8061042129993439e-02" rms="3.4909650683403015e-01" purity="5.0000000000000000e-01" nType="0">
        <Node pos="l" depth="1" NCoef="0" IVar="0" Cut="7.3511176742613316e-04" cType="1" res="2.4116966128349304e-01" rms="2.8395935893058777e-01" purity="9.0797525644302368e-01" nType="0">
          <Node pos="l" depth="2" NCoef="0" IVar="-1" Cut="0.0000000000000000e+00" cType="1" res="9.3374280259013176e-03" rms="2.1737608313560486e-01" purity="9.4981843233108521e-01" nType="-99"/>
          <Node pos="r" depth="2" NCoef="0" IVar="-1" Cut="0.0000000000000000e+00" cType="1" res="7.4049243703484535e-03" rms="3.5712981224060059e-01" purity="8.4488719701766968e-01" nType="-99"/>
        </Node>
        <Node pos="r" depth="1" NCoef="0" IVar="0" Cut="8.5150059312582016e-03" cType="1" res="-1.0997505858540535e-02" rms="3.5152190923690796e-01" purity="2.3604725301265717e-01" nType="0">
          <Node pos="l" depth="2" NCoef="0" IVar="-1" Cut="0.0000000000000000e+00" cType="1" res="3.7065155338495970e-03" rms="4.5647254586219788e-01" purity="6.7991328239440918e-01" nType="-99"/>
          <Node pos="r" depth="2" NCoef="0" IVar="1" Cut="7.6940670013427734e+00" cType="1" res="-2.7982471510767937e-02" rms="3.2682290673255920e-01" purity="1.5850307047367096e-01" nType="0">
            <Node pos="l" depth="3" NCoef="0" IVar="-1" Cut="0.0000000000000000e+00" cType="1" res="-3.1537921167910099e-03" rms="3.4353727102279663e-01" purity="1.7781804502010345e-01" nType="-99"/>
            <Node pos="r" depth="3" NCoef="0" IVar="-1" Cut="0.0000000000000000e+00" cType="1" res="-4.6265110373497009e-02" rms="1.3445514440536499e-01" purity="1.2282801792025566e-02" nType="-99"/>
          </Node>
        </Node>
      </Node>
    </BinaryTree>
    <BinaryTree type="DecisionTree" boostWeight="1.0000000000000000e+00" itree="35">
      <Node pos="s" depth="0" NCoef="0" IVar="0" Cut="3.7122648209333420e-03" cType="1" res="8.7259665131568909e-02" rms="3.4805849194526672e-01" purity="5.0000000000000000e-01" nType="0">
        <Node pos="l" depth="1" NCoef="0" IVar="0" Cut="7.3511176742613316e-04" cType="1" res="2.3738908767700195e-01" rms="2.8392678499221802e-01" purity="9.0797525644302368e-01" nType="0">
          <Node pos="l" depth="2" NCoef="0" IVar="-1" Cut="0.0000000000000000e+00" cType="1" res="9.2600025236606598e-03" rms="2.1738187968730927e-01" purity="9.4981843233108521e-01" nType="-99"/>
          <Node pos="r" depth="2" NCoef="0" IVar="-1" Cut="0.0000000000000000e+00" cType="1" res="7.3107061907649040e-03" rms="3.5714790225028992e-01" purity="8.4488719701766968e-01" nType="-99"/>
        </Node>
        <Node pos="r" depth="1" NCoef="0" IVar="0" Cut="8.5150059312582016e-03" cType="1" res="-9.8713934421539307e-03" rms="3.5121276974678040e-01" purity="2.3604725301265717e-01" nType="0">
          <Node pos="l" depth="2" NCoef="0" IVar="-1" Cut="0.0000000000000000e+00" cType="1" res="3.6354386247694492e-03" rms="4.5648279786109924e-01" purity="6.7991328239440918e-01" nType="-99"/>
          <Node pos="r" depth="2" NCoef="0" IVar="0" Cut="2.2352404892444611e-02" cType="1" res="-2.6348799467086792e-02" rms="3.2660460472106934e-01" purity="1.5850307047367096e-01" nType="0">
            <Node pos="l" depth="3" NCoef="0" IVar="-1" Cut="0.0000000000000000e+00" cType="1" res="7.7131303260102868e-04" rms="4.6809351444244385e-01" purity="3.9964476227760315e-01" nType="-99"/>
            <Node pos="r" depth="3" NCoef="0" IVar="-1" Cut="0.0000000000000000e+00" cType="1" res="-1.3117551803588867e-02" rms="2.6449495553970337e-01" purity="8.1073507666587830e-02" nType="-99"/>
          </Node>
        </Node>
      </Node>
    </BinaryTree>
    <BinaryTree type="DecisionTree" boostWeight="1.0000000000000000e+00" itree="36">
      <Node pos="s" depth="0" NCoef="0" IVar="0" Cut="3.7122648209333420e-03" cType="1" res="8.6638785898685455e-02" rms="3.4708133339881897e-01" purity="5.0000000000000000e-01" nType="0">
        <Node pos="l" depth="1" NCoef="0" IVar="0" Cut="7.3511176742613316e-04" cType="1" res="2.3366805911064148e-01" rms="2.8389495611190796e-01" purity="9.0797525644302368e-01" nType="0">
          <Node pos="l" depth="2" NCoef="0" IVar="-1" Cut="0.0000000000000000e+00" cType="1" res="9.1840801760554314e-03" rms="2.1738770604133606e-01" purity="9.4981843233108521e-01" nType="-99"/>
          <Node pos="r" depth="2" NCoef="0" IVar="-1" Cut="0.0000000000000000e+00" cType="1" res="7.2179692797362804e-03" rms="3.5716614127159119e-01" purity="8.4488719701766968e-01" nType="-99"/>
        </Node>
        <Node pos="r" depth="1" NCoef="0" IVar="0" Cut="8.5150059312582016e-03" cType="1" res="-8.4865447133779526e-03" rms="3.5103419423103333e-01" purity="2.3604725301265717e-01" nType="0">
          <Node pos="l" depth="2" NCoef="0" IVar="-1" Cut="0.0000000000000000e+00" cType="1" res="3.5657063126564026e-03" rms="4.5649304986000061e-01" purity="6.7991328239440918e-01" nType="-99"/>
          <Node pos="r" depth="2" NCoef="0" IVar="0" Cut="2.8117949143052101e-02" cType="1" res="-2.4417573586106300e-02" rms="3.2655888795852661e-01" purity="1.5850307047367096e-01" nType="0">
            <Node pos="l" depth="3" NCoef="0" IVar="-1" Cut="0.0000000000000000e+00" cType="1" res="4.2135835974477232e-04" rms="4.5230242609977722e-01" purity="3.5272222757339478e-01" nType="-99"/>
            <Node pos="r" depth="3" NCoef="0" IVar="-1" Cut="0.0000000000000000e+00" cType="1" res="-1.6036843881011009e-02" rms="2.4450103938579559e-01" purity="6.6808208823204041e-02" nType="-99"/>
          </Node>
        </Node>
      </Node>
    </BinaryTree>
    <BinaryTree type="DecisionTree" boostWeight="1.0000000000000000e+00" itree="37">
      <Node pos="s" depth="0" NCoef="0" IVar="0" Cut="3.7122648209333420e-03" cType="1" res="8.6048029363155365e-02" rms="3.4612283110618591e-01" purity="5.0000000000000000e-01" nType="0">
        <Node pos="l" depth="1" NCoef="0" IVar="0" Cut="7.3511176742613316e-04" cType="1" res="2.3000568151473999e-01" rms="2.8386381268501282e-01" purity="9.0797525644302368e-01" nType="0">
          <Node pos="l" depth="2" NCoef="0" IVar="-1" Cut="0.0000000000000000e+00" cType="1" res="9.1096023097634315e-03" rms="2.1739360690116882e-01" purity="9.4981843233108521e-01" nType="-99"/>
          <Node pos="r" depth="2" NCoef="0" IVar="-1" Cut="0.0000000000000000e+00" cType="1" res="7.1266642771661282e-03" rms="3.5718449950218201e-01" purity="8.4488719701766968e-01" nType="-99"/>
        </Node>
        <Node pos="r" depth="1" NCoef="0" IVar="0" Cut="8.5150059312582016e-03" cType="1" res="-7.0900022983551025e-03" rms="3.5084834694862366e-01" purity="2.3604725301265717e-01" nType="0">
          <Node pos="l" depth="2" NCoef="0" IVar="-1" Cut="0.0000000000000000e+00" cType="1" res="3.4972897265106440e-03" rms="4.5650336146354675e-01" purity="6.7991328239440918e-01" nType="-99"/>
          <Node pos="r" depth="2" NCoef="0" IVar="1" Cut="7.6940670013427734e+00" cType="1" res="-2.2478867322206497e-02" rms="3.2649657130241394e-01" purity="1.5850307047367096e-01" nType="0">
            <Node pos="l" depth="3" NCoef="0" IVar="-1" Cut="0.0000000000000000e+00" cType="1" res="-2.4170351680368185e-03" rms="3.4339994192123413e-01" purity="1.7781804502010345e-01" nType="-99"/>
            <Node pos="r" depth="3" NCoef="0" IVar="-1" Cut="0.0000000000000000e+00" cType="1" res="-4.4847451150417328e-02" rms="1.3228759169578552e-01" purity="1.2282801792025566e-02" nType="-99"/>
          </Node>
        </Node>
      </Node>
    </BinaryTree>
    <BinaryTree type="DecisionTree" boostWeight="1.0000000000000000e+00" itree="38">
      <Node pos="s" depth="0" NCoef="0" IVar="0" Cut="3.7122648209333420e-03" cType="1" res="8.5172332823276520e-02" rms="3.4522160887718201e-01" purity="5.0000000000000000e-01" nType="0">
        <Node pos="l" depth="1" NCoef="0" IVar="0" Cut="7.3511176742613316e-04" cType="1" res="2.2640098631381989e-01" rms="2.8383335471153259e-01" purity="9.0797525644302368e-01" nType="0">
          <Node pos="l" depth="2" NCoef="0" IVar="-1" Cut="0.0000000000000000e+00" cType="1" res="9.0365111827850342e-03" rms="2.1739953756332397e-01" purity="9.4981843233108521e-01" nType="-99"/>
          <Node pos="r" depth="2" NCoef="0" IVar="-1" Cut="0.0000000000000000e+00" cType="1" res="7.0367450825870037e-03" rms="3.5720297694206238e-01" purity="8.4488719701766968e-01" nType="-99"/>
        </Node>
        <Node pos="r" depth="1" NCoef="0" IVar="0" Cut="1.0916328057646751e-02" cType="1" res="-6.2000839971005917e-03" rms="3.5058364272117615e-01" purity="2.3604725301265717e-01" nType="0">
          <Node pos="l" depth="2" NCoef="0" IVar="-1" Cut="0.0000000000000000e+00" cType="1" res="2.9655280523002148e-03" rms="4.6403780579566956e-01" purity="6.4585858583450317e-01" nType="-99"/>
          <Node pos="r" depth="2" NCoef="0" IVar="0" Cut="3.3503077924251556e-02" cType="1" res="-2.3925606161355972e-02" rms="3.1423291563987732e-01" purity="1.3598898053169250e-01" nType="0">
            <Node pos="l" depth="3" NCoef="0" IVar="-1" Cut="0.0000000000000000e+00" cType="1" res="6.0368736740201712e-05" rms="4.2936515808105469e-01" purity="2.8249073028564453e-01" nType="-99"/>
            <Node pos="r" depth="3" NCoef="0" IVar="-1" Cut="0.0000000000000000e+00" cType="1" res="-1.8465388566255569e-02" rms="2.2746534645557404e-01" purity="5.6422065943479538e-02" nType="-99"/>
          </Node>
        </Node>
      </Node>
    </BinaryTree>
    <BinaryTree type="DecisionTree" boostWeight="1.0000000000000000e+00" itree="39">
      <Node pos="s" depth="0" NCoef="0" IVar="0" Cut="3.7122648209333420e-03" cType="1" res="8.4571197628974915e-02" rms="3.4432864189147949e-01" purity="5.0000000000000000e-01" nType="0">
        <Node pos="l" depth="1" NCoef="0" IVar="0" Cut="7.7186664566397667e-04" cType="1" res="2.2285304963588715e-01" rms="2.8380358219146729e-01" purity="9.0797525644302368e-01" nType="0">
          <Node pos="l" depth="2" NCoef="0" IVar="-1" Cut="0.0000000000000000e+00" cType="1" res="8.9472420513629913e-03" rms="2.1898443996906281e-01" purity="9.4902127981185913e-01" nType="-99"/>
          <Node pos="r" depth="2" NCoef="0" IVar="-1" Cut="0.0000000000000000e+00" cType="1" res="6.9192135706543922e-03" rms="3.5881969332695007e-01" purity="8.4322845935821533e-01" nType="-99"/>
        </Node>
        <Node pos="r" depth="1" NCoef="0" IVar="0" Cut="8.5150059312582016e-03" cType="1" res="-4.8947036266326904e-03" rms="3.5040459036827087e-01" purity="2.3604725301265717e-01" nType="0">
          <Node pos="l" depth="2" NCoef="0" IVar="-1" Cut="0.0000000000000000e+00" cType="1" res="3.3732203301042318e-03" rms="4.5652252435684204e-01" purity="6.7991328239440918e-01" nType="-99"/>
          <Node pos="r" depth="2" NCoef="0" IVar="3" Cut="2.6411798477172852e+01" cType="1" res="-1.9360652193427086e-02" rms="3.2621565461158752e-01" purity="1.5850307047367096e-01" nType="0">
            <Node pos="l" depth="3" NCoef="0" IVar="-1" Cut="0.0000000000000000e+00" cType="1" res="3.6110508517595008e-05" rms="3.7755218148231506e-01" purity="2.2880567610263824e-01" nType="-99"/>
            <Node pos="r" depth="3" NCoef="0" IVar="-1" Cut="0.0000000000000000e+00" cType="1" res="-1.0660836473107338e-02" rms="2.6700103282928467e-01" purity="9.1546930372714996e-02" nType="-99"/>
          </Node>
        </Node>
      </Node>
    </BinaryTree>
    <BinaryTree type="DecisionTree" boostWeight="1.0000000000000000e+00" itree="40">
      <Node pos="s" depth="0" NCoef="0" IVar="0" Cut="3.7122648209333420e-03" cType="1" res="8.3627052605152130e-02" rms="3.4358233213424683e-01" purity="5.0000000000000000e-01" nType="0">
        <Node pos="l" depth="1" NCoef="0" IVar="0" Cut="7.7186664566397667e-04" cType="1" res="2.1936120092868805e-01" rms="2.8377437591552734e-01" purity="9.0797525644302368e-01" nType="0">
          <Node pos="l" depth="2" NCoef="0" IVar="-1" Cut="0.0000000000000000e+00" cType="1" res="8.8766105473041534e-03" rms="2.1899078786373138e-01" purity="9.4902127981185913e-01" nType="-99"/>
          <Node pos="r" depth="2" NCoef="0" IVar="-1" Cut="0.0000000000000000e+00" cType="1" res="6.8317493423819542e-03" rms="3.5883814096450806e-01" purity="8.4322845935821533e-01" nType="-99"/>
        </Node>
        <Node pos="r" depth="1" NCoef="0" IVar="0" Cut="1.0916328057646751e-02" cType="1" res="-4.1905213147401810e-03" rms="3.5027477145195007e-01" purity="2.3604725301265717e-01" nType="0">
          <Node pos="l" depth="2" NCoef="0" IVar="-1" Cut="0.0000000000000000e+00" cType="1" res="2.8640716336667538e-03" rms="4.6397635340690613e-01" purity="6.4585858583450317e-01" nType="-99"/>
          <Node pos="r" depth="2" NCoef="0" IVar="0" Cut="4.8184417188167572e-02" cType="1" res="-2.0836688578128815e-02" rms="3.1412732601165771e-01" purity="1.3598898053169250e-01" nType="0">
            <Node pos="l" depth="3" NCoef="0" IVar="-1" Cut="0.0000000000000000e+00" cType="1" res="-6.1725423438474536e-04" rms="3.9029473066329956e-01" purity="2.2118423879146576e-01" nType="-99"/>
            <Node pos="r" depth="3" NCoef="0" IVar="-1" Cut="0.0000000000000000e+00" cType="1" res="-2.5937911123037338e-02" rms="1.9215108454227448e-01" purity="3.8926512002944946e-02" nType="-99"/>
          </Node>
        </Node>
      </Node>
    </BinaryTree>
    <BinaryTree type="DecisionTree" boostWeight="1.0000000000000000e+00" itree="41">
      <Node pos="s" depth="0" NCoef="0" IVar="0" Cut="3.7122648209333420e-03" cType="1" res="8.2993343472480774e-02" rms="3.4275397658348083e-01" purity="5.0000000000000000e-01" nType="0">
        <Node pos="l" depth="1" NCoef="0" IVar="0" Cut="7.3511176742613316e-04" cType="1" res="2.1592432260513306e-01" rms="2.8374582529067993e-01" purity="9.0797525644302368e-01" nType="0">
          <Node pos="l" depth="2" NCoef="0" IVar="-1" Cut="0.0000000000000000e+00" cType="1" res="8.8253067806363106e-03" rms="2.1741755306720734e-01" purity="9.4981843233108521e-01" nType="-99"/>
          <Node pos="r" depth="2" NCoef="0" IVar="-1" Cut="0.0000000000000000e+00" cType="1" res="6.7743924446403980e-03" rms="3.5725432634353638e-01" purity="8.4488719701766968e-01" nType="-99"/>
        </Node>
        <Node pos="r" depth="1" NCoef="0" IVar="0" Cut="8.5150059312582016e-03" cType="1" res="-3.0106324702501297e-03" rms="3.5009860992431641e-01" purity="2.3604725301265717e-01" nType="0">
          <Node pos="l" depth="2" NCoef="0" IVar="-1" Cut="0.0000000000000000e+00" cType="1" res="3.2533842604607344e-03" rms="4.5654168725013733e-01" purity="6.7991328239440918e-01" nType="-99"/>
          <Node pos="r" depth="2" NCoef="0" IVar="1" Cut="7.6940670013427734e+00" cType="1" res="-1.6628196462988853e-02" rms="3.2607057690620422e-01" purity="1.5850307047367096e-01" nType="0">
            <Node pos="l" depth="3" NCoef="0" IVar="-1" Cut="0.0000000000000000e+00" cType="1" res="-1.5806120354682207e-03" rms="3.4310385584831238e-01" purity="1.7781804502010345e-01" nType="-99"/>
            <Node pos="r" depth="3" NCoef="0" IVar="-1" Cut="0.0000000000000000e+00" cType="1" res="-4.3380450457334518e-02" rms="1.3049349188804626e-01" purity="1.2282801792025566e-02" nType="-99"/>
          </Node>
        </Node>
      </Node>
    </BinaryTree>
    <BinaryTree type="DecisionTree" boostWeight="1.0000000000000000e+00" itree="42">
      <Node pos="s" depth="0" NCoef="0" IVar="0" Cut="3.7122648209333420e-03" cType="1" res="8.2058213651180267e-02" rms="3.4199470281600952e-01" purity="5.0000000000000000e-01" nType="0">
        <Node pos="l" depth="1" NCoef="0" IVar="0" Cut="7.7186664566397667e-04" cType="1" res="2.1254137158393860e-01" rms="2.8371798992156982e-01" purity="9.0797525644302368e-01" nType="0">
          <Node pos="l" depth="2" NCoef="0" IVar="-1" Cut="0.0000000000000000e+00" cType="1" res="8.7391566485166550e-03" rms="2.1900109946727753e-01" purity="9.4902127981185913e-01" nType="-99"/>
          <Node pos="r" depth="2" NCoef="0" IVar="-1" Cut="0.0000000000000000e+00" cType="1" res="6.6602155566215515e-03" rms="3.5887536406517029e-01" purity="8.4322845935821533e-01" nType="-99"/>
        </Node>
        <Node pos="r" depth="1" NCoef="0" IVar="0" Cut="1.8120292574167252e-02" cType="1" res="-2.3620717693120241e-03" rms="3.4987145662307739e-01" purity="2.3604725301265717e-01" nType="0">
          <Node pos="l" depth="2" NCoef="0" IVar="0" Cut="7.2786482051014900e-03" cType="1" res="4.5784689486026764e-02" rms="4.6795448660850525e-01" purity="5.5894243717193604e-01" nType="0">
            <Node pos="l" depth="3" NCoef="0" IVar="-1" Cut="0.0000000000000000e+00" cType="1" res="3.5673885140568018e-03" rms="4.5043855905532837e-01" purity="6.9845193624496460e-01" nType="-99"/>
            <Node pos="r" depth="3" NCoef="0" IVar="-1" Cut="0.0000000000000000e+00" cType="1" res="1.2380088446661830e-03" rms="4.7737684845924377e-01" purity="4.6876931190490723e-01" nType="-99"/>
          </Node>
          <Node pos="r" depth="2" NCoef="0" IVar="3" Cut="3.5421192169189453e+01" cType="1" res="-2.3390697315335274e-02" rms="2.8067198395729065e-01" purity="9.5019228756427765e-02" nType="0">
            <Node pos="l" depth="3" NCoef="0" IVar="-1" Cut="0.0000000000000000e+00" cType="1" res="-4.0074880234897137e-03" rms="3.0729901790618896e-01" purity="1.1631302535533905e-01" nType="-99"/>
            <Node pos="r" depth="3" NCoef="0" IVar="-1" Cut="0.0000000000000000e+00" cType="1" res="-2.1548679098486900e-02" rms="2.0061562955379486e-01" purity="4.3456770479679108e-02" nType="-99"/>
          </Node>
        </Node>
      </Node>
    </BinaryTree>
    <BinaryTree type="DecisionTree" boostWeight="1.0000000000000000e+00" itree="43">
      <Node pos="s" depth="0" NCoef="0" IVar="0" Cut="3.7122648209333420e-03" cType="1" res="8.1230461597442627e-02" rms="3.4128472208976746e-01" purity="5.0000000000000000e-01" nType="0">
        <Node pos="l" depth="1" NCoef="0" IVar="0" Cut="6.9835688918828964e-04" cType="1" res="2.0921185612678528e-01" rms="2.8369069099426270e-01" purity="9.0797525644302368e-01" nType="0">
          <Node pos="l" depth="2" NCoef="0" IVar="-1" Cut="0.0000000000000000e+00" cType="1" res="8.6987987160682678e-03" rms="2.1592342853546143e-01" purity="9.5056170225143433e-01" nType="-99"/>
          <Node pos="r" depth="2" NCoef="0" IVar="-1" Cut="0.0000000000000000e+00" cType="1" res="6.6493330523371696e-03" rms="3.5545873641967773e-01" purity="8.4674549102783203e-01" nType="-99"/>
        </Node>
        <Node pos="r" depth="1" NCoef="0" IVar="0" Cut="1.0916328057646751e-02" cType="1" res="-1.5712301246821880e-03" rms="3.4972861409187317e-01" purity="2.3604725301265717e-01" nType="0">
          <Node pos="l" depth="2" NCoef="0" IVar="-1" Cut="0.0000000000000000e+00" cType="1" res="2.7230801060795784e-03" rms="4.6368551254272461e-01" purity="6.4585858583450317e-01" nType="-99"/>
          <Node pos="r" depth="2" NCoef="0" IVar="0" Cut="3.5761747509241104e-02" cType="1" res="-1.6758436337113380e-02" rms="3.1385162472724915e-01" purity="1.3598898053169250e-01" nType="0">
            <Node pos="l" depth="3" NCoef="0" IVar="-1" Cut="0.0000000000000000e+00" cType="1" res="3.6329231807030737e-04" rms="4.2217054963111877e-01" purity="2.7061524987220764e-01" nType="-99"/>
            <Node pos="r" depth="3" NCoef="0" IVar="-1" Cut="0.0000000000000000e+00" cType="1" res="-1.6572827473282814e-02" rms="2.2142955660820007e-01" purity="5.3139265626668930e-02" nType="-99"/>
          </Node>
        </Node>
      </Node>
    </BinaryTree>
    <BinaryTree type="DecisionTree" boostWeight="1.0000000000000000e+00" itree="44">
      <Node pos="s" depth="0" NCoef="0" IVar="0" Cut="3.7122648209333420e-03" cType="1" res="8.0501653254032135e-02" rms="3.4058377146720886e-01" purity="5.0000000000000000e-01" nType="0">
        <Node pos="l" depth="1" NCoef="0" IVar="0" Cut="8.4537634393200278e-04" cType="1" res="2.0593458414077759e-01" rms="2.8366476297378540e-01" purity="9.0797525644302368e-01" nType="0">
          <Node pos="l" depth="2" NCoef="0" IVar="-1" Cut="0.0000000000000000e+00" cType="1" res="8.5869440808892250e-03" rms="2.2210070490837097e-01" purity="9.4743067026138306e-01" nType="-99"/>
